{"learner":{"attributes":{"scikit_learn":"{\"_estimator_type\": \"classifier\"}"},"feature_names":[],"feature_types":[],"gradient_booster":{"model":{"gbtree_model_param":{"num_parallel_tree":"1","num_trees":"100"},"iteration_indptr":[0,1,2,3,4,5,6,7,8,9,10,11,12,13,14,15,16,17,18,19,20,21,22,23,24,25,26,27,28,29,30,31,32,33,34,35,36,37,38,39,40,41,42,43,44,45,46,47,48,49,50,51,52,53,54,55,56,57,58,59,60,61,62,63,64,65,66,67,68,69,70,71,72,73,74,75,76,77,78,79,80,81,82,83,84,85,86,87,88,89,90,91,92,93,94,95,96,97,98,99,100],"tree_info":[0,0,0,0,0,0,0,0,0,0,0,0,0,0,0,0,0,0,0,0,0,0,0,0,0,0,0,0,0,0,0,0,0,0,0,0,0,0,0,0,0,0,0,0,0,0,0,0,0,0,0,0,0,0,0,0,0,0,0,0,0,0,0,0,0,0,0,0,0,0,0,0,0,0,0,0,0,0,0,0,0,0,0,0,0,0,0,0,0,0,0,0,0,0,0,0,0,0,0,0],"trees":[{"base_weights":[-1.5396977E-2,5.201443E-1,-9.887746E-1,-1.08804815E-1,8.2379144E-1,-1.2139338E0,-1.6493024E-2,1.4345621E0,2.560148E-1,-1.3735137E0,-2.3111923E-2,5.3529467E-2,1.623358E-1,-1.4720799E-1,1.262597E-1,-2.3111923E-2,-1.6128825E-1,1.10226154E-1,-5.7347065E-1,-1.0120485E-1,1.427757E-2],"categories":[],"categories_nodes":[],"categories_segments":[],"categories_sizes":[],"default_left":[0,0,0,0,0,0,0,0,0,0,0,0,0,0,0,0,0,0,0,0,0],"id":0,"left_children":[1,3,5,-1,7,9,-1,11,13,15,-1,-1,-1,17,-1,-1,-1,-1,19,-1,-1],"loss_changes":[1.4327477E1,9.563536E0,1.6082697E0,0E0,5.0075197E0,8.587704E-1,0E0,3.6184692E-1,3.9400115E0,1.3362246E0,0E0,0E0,0E0,4.6264095E0,0E0,0E0,0E0,0E0,2.1077015E0,0E0,0E0],"parents":[2147483647,0,0,1,1,2,2,4,4,5,5,7,7,8,8,9,9,13,13,18,18],"right_children":[2,4,6,-1,8,10,-1,12,14,16,-1,-1,-1,18,-1,-1,-1,-1,20,-1,-1],"split_conditions":[-1.0357826E-1,-3.2162648E-1,1.2657793E-1,-1.08804815E-1,-3.1733334E-1,8.164813E-1,-1.6493024E-2,-3.6092308E-1,6.92697E-1,-8.563414E-1,-2.3111923E-2,5.3529467E-2,1.623358E-1,-3.469318E-1,1.262597E-1,-2.3111923E-2,-1.6128825E-1,1.10226154E-1,-1.322509E-1,-1.0120485E-1,1.427757E-2],"split_indices":[13,5,6,0,17,0,0,17,0,10,0,0,0,7,0,0,0,0,12,0,0],"split_type":[0,0,0,0,0,0,0,0,0,0,0,0,0,0,0,0,0,0,0,0,0],"sum_hessian":[2.5498367E1,1.6748928E1,8.74944E0,2.249856E0,1.4499072E1,6.4995837E0,2.249856E0,6.2496E0,8.249472E0,5.249664E0,1.24992E0,1.749888E0,4.499712E0,6.4995837E0,1.749888E0,1.24992E0,3.999744E0,1.24992E0,5.249664E0,2.9998078E0,2.249856E0],"tree_param":{"num_deleted":"0","num_feature":"18","num_nodes":"21","size_leaf_vector":"1"}},{"base_weights":[-3.384719E-2,4.8433602E-1,-1.0507319E0,-7.8509524E-2,1.1062164E0,-1.353114E0,3.0864243E-4,-1.08039856E-1,1.8127441E-1,1.5695885E-1,1.00651994E-1,-2.1827286E-2,-1.5625736E-1,8.5714173E-1,-6.8363804E-1,-4.36106E-2,6.516749E-2,3.0128637E-2,1.0882173E-1,-1.17648795E-1,-4.4846176E-3],"categories":[],"categories_nodes":[],"categories_segments":[],"categories_sizes":[],"default_left":[0,0,0,0,0,0,0,0,0,0,0,0,0,0,0,0,0,0,0,0,0],"id":1,"left_children":[1,3,5,7,9,11,-1,-1,13,-1,15,-1,-1,17,19,-1,-1,-1,-1,-1,-1],"loss_changes":[1.403444E1,6.278113E0,2.8657837E0,2.855472E0,3.7884598E0,1.3181639E0,0E0,0E0,5.8300056E0,0E0,1.3904383E0,0E0,0E0,3.759389E-1,1.3612514E0,0E0,0E0,0E0,0E0,0E0,0E0],"parents":[2147483647,0,0,1,1,2,2,3,3,4,4,5,5,8,8,10,10,13,13,14,14],"right_children":[2,4,6,8,10,12,-1,-1,14,-1,16,-1,-1,18,20,-1,-1,-1,-1,-1,-1],"split_conditions":[-1.0509951E-1,-4.3333146E-1,8.164813E-1,-3.5582954E-1,-1.706411E-1,-9.409435E-1,3.0864243E-4,-1.08039856E-1,-1.3348174E-1,1.5695885E-1,-1.4863066E-1,-2.1827286E-2,-1.5625736E-1,-1.1422695E-1,-1.322509E-1,-4.36106E-2,6.516749E-2,3.0128637E-2,1.0882173E-1,-1.17648795E-1,-4.4846176E-3],"split_indices":[13,10,0,11,2,10,0,0,14,0,11,0,0,13,12,0,0,0,0,0,0],"split_type":[0,0,0,0,0,0,0,0,0,0,0,0,0,0,0,0,0,0,0,0,0],"sum_hessian":[2.4668432E1,1.6688187E1,7.980245E0,9.218526E0,7.4696603E0,5.980261E0,1.9999841E0,1.2477167E0,7.9708095E0,4.7294083E0,2.740252E0,1.2499841E0,4.7302766E0,4.479435E0,3.4913743E0,1.4937369E0,1.2465152E0,1.9918518E0,2.4875832E0,1.4956725E0,1.9957018E0],"tree_param":{"num_deleted":"0","num_feature":"18","num_nodes":"21","size_leaf_vector":"1"}},{"base_weights":[-1.669672E-1,5.2644387E-2,-1.2196453E-1,-8.2972026E-1,3.393455E-1,-1.2236645E-1,-2.5175166E-1,1.0670772E0,-6.0962595E-2,2.022111E-2,-5.9379347E-2,1.2683657E-1,1.624352E-2,-4.889781E-1,5.126305E-1,-7.6549935E-1,3.4193195E-2,-2.0437036E-2,9.005345E-1,-1.3698833E-1,-1.2903468E-1,1.1660143E-1,2.0152077E-2,5.5037785E-2,-6.9850914E-2],"categories":[],"categories_nodes":[],"categories_segments":[],"categories_sizes":[],"default_left":[0,0,0,0,0,0,0,0,0,0,0,0,0,0,0,0,0,0,0,0,0,0,0,0,0],"id":2,"left_children":[1,3,-1,5,7,-1,9,11,13,-1,-1,-1,-1,15,17,19,-1,-1,21,23,-1,-1,-1,-1,-1],"loss_changes":[5.6754446E0,5.6044345E0,0E0,9.329238E-1,4.8982105E0,0E0,6.5859735E-1,8.7590265E-1,3.1106029E0,0E0,0E0,0E0,0E0,1.91213E0,1.7043403E0,1.702898E0,0E0,0E0,4.5760775E-1,1.8170775E0,0E0,0E0,0E0,0E0,0E0],"parents":[2147483647,0,0,1,1,3,3,4,4,6,6,7,7,8,8,13,13,14,14,15,15,18,18,19,19],"right_children":[2,4,-1,6,8,-1,10,12,14,-1,-1,-1,-1,16,18,20,-1,-1,22,24,-1,-1,-1,-1,-1],"split_conditions":[4.6245012E-1,-3.419764E-1,-1.2196453E-1,-3.5582954E-1,-1.282937E-1,-1.2236645E-1,-4.4602358E-1,-1.2250551E-1,-1.4863066E-1,2.022111E-2,-5.9379347E-2,1.2683657E-1,1.624352E-2,2.8578556E-1,-4.7563246E-1,-2.3159878E-1,3.4193195E-2,-2.0437036E-2,1.4581212E-1,-3.1733334E-1,-1.2903468E-1,1.1660143E-1,2.0152077E-2,5.5037785E-2,-6.9850914E-2],"split_indices":[16,4,0,11,15,0,3,3,11,0,0,0,0,10,10,9,0,0,1,17,0,0,0,0,0],"split_type":[0,0,0,0,0,0,0,0,0,0,0,0,0,0,0,0,0,0,0,0,0,0,0,0,0],"sum_hessian":[2.3272127E1,2.0041105E1,3.2310214E0,4.4503813E0,1.5590724E1,1.982158E0,2.4682236E0,4.9416027E0,1.0649121E1,1.2362571E0,1.2319664E0,3.7133057E0,1.2282972E0,6.182932E0,4.46619E0,4.698143E0,1.4847887E0,1.7340738E0,2.732116E0,2.7117712E0,1.9863718E0,1.4959003E0,1.2362158E0,1.2281808E0,1.4835906E0],"tree_param":{"num_deleted":"0","num_feature":"18","num_nodes":"25","size_leaf_vector":"1"}},{"base_weights":[3.964365E-2,2.2879538E-1,-9.526802E-1,-8.312262E-1,4.1015112E-1,-1.0498702E-2,-1.2445622E-1,-1.0140888E-1,-3.31464E-2,8.3527285E-1,3.2988604E-2,1.1487063E0,-2.4886996E-2,-5.283574E-1,6.7567825E-1,1.7275752E-2,1.3118817E-1,-9.667929E-2,-1.154375E-1,-1.3765796E-2,1.0422022E0,-6.048176E-1,6.985691E-2,1.2541708E-1,3.900745E-2,1.7195603E-2,-1.05896845E-1],"categories":[],"categories_nodes":[],"categories_segments":[],"categories_sizes":[],"default_left":[0,0,0,0,0,0,0,0,0,0,0,0,0,0,0,0,0,0,0,0,0,0,0,0,0,0,0],"id":3,"left_children":[1,3,5,7,9,-1,-1,-1,-1,11,13,15,-1,17,19,-1,-1,21,-1,-1,23,25,-1,-1,-1,-1,-1],"loss_changes":[5.205765E0,4.7865577E0,9.698839E-1,2.8076172E-3,3.2460206E0,0E0,0E0,0E0,0E0,3.53337E0,4.635596E0,9.82337E-1,0E0,1.7507637E0,1.9225714E0,0E0,0E0,2.5118136E0,0E0,0E0,9.559393E-2,1.4840322E0,0E0,0E0,0E0,0E0,0E0],"parents":[2147483647,0,0,1,1,2,2,3,3,4,4,9,9,10,10,11,11,13,13,14,14,17,17,20,20,21,21],"right_children":[2,4,6,8,10,-1,-1,-1,-1,12,14,16,-1,18,20,-1,-1,22,-1,-1,24,26,-1,-1,-1,-1,-1],"split_conditions":[4.6245012E-1,-3.2162648E-1,-7.956437E-2,-6.0703826E-1,-1.3348174E-1,-1.0498702E-2,-1.2445622E-1,-1.0140888E-1,-3.31464E-2,-1.4297436E-1,-9.938461E-2,-3.419764E-1,-2.4886996E-2,3.703323E-2,-2.622442E-1,1.7275752E-2,1.3118817E-1,-1.7688183E-1,-1.154375E-1,-1.3765796E-2,-7.0326515E-2,-1.2511823E-1,6.985691E-2,1.2541708E-1,3.900745E-2,1.7195603E-2,-1.05896845E-1],"split_indices":[16,5,11,0,14,0,0,0,0,17,17,4,0,15,1,0,0,16,0,0,16,14,0,0,0,0,0],"split_type":[0,0,0,0,0,0,0,0,0,0,0,0,0,0,0,0,0,0,0,0,0,0,0,0,0,0,0],"sum_hessian":[2.5573267E1,2.212529E1,3.4479759E0,2.708828E0,1.9416462E1,1.2313986E0,2.2165773E0,1.229729E0,1.479099E0,8.556882E0,1.0859581E1,6.591639E0,1.9652425E0,5.89158E0,4.9680004E0,1.239133E0,5.352506E0,4.1703205E0,1.72126E0,1.7372882E0,3.2307124E0,2.690584E0,1.4797363E0,1.7414658E0,1.4892465E0,1.221948E0,1.4686359E0],"tree_param":{"num_deleted":"0","num_feature":"18","num_nodes":"27","size_leaf_vector":"1"}},{"base_weights":[-3.420025E-2,5.7761097E-1,-7.9943216E-1,-2.3949412E-1,8.801261E-1,-1.14157856E-1,-1.1671873E-1,8.191097E-2,-1.0623707E-1,2.3081008E-1,1.2205156E0,6.095744E-2,-7.470082E-2,-5.8785435E-2,6.343868E-1,1.365079E-1,4.8105817E-2,1.0108673E-1,9.226736E-3],"categories":[],"categories_nodes":[],"categories_segments":[],"categories_sizes":[],"default_left":[0,0,0,0,0,0,0,0,0,0,0,0,0,0,0,0,0,0,0],"id":4,"left_children":[1,3,5,7,9,-1,11,-1,-1,13,15,-1,-1,-1,17,-1,-1,-1,-1],"loss_changes":[1.2915004E1,4.008068E0,2.725265E0,5.1706643E0,2.2434912E0,0E0,2.8354685E0,0E0,0E0,2.0786436E0,1.1966896E-1,0E0,0E0,0E0,7.106602E-1,0E0,0E0,0E0,0E0],"parents":[2147483647,0,0,1,1,2,2,3,3,4,4,6,6,9,9,10,10,14,14],"right_children":[2,4,6,8,10,-1,12,-1,-1,14,16,-1,-1,-1,18,-1,-1,-1,-1],"split_conditions":[-1.0814199E-1,-4.4602358E-1,3.337225E-1,-4.811933E-1,-4.9678296E-1,-1.14157856E-1,1.1135637E0,8.191097E-2,-1.0623707E-1,-2.1769695E-1,-1.2511823E-1,6.095744E-2,-7.470082E-2,-5.8785435E-2,-1.2250551E-1,1.365079E-1,4.8105817E-2,1.0108673E-1,9.226736E-3],"split_indices":[13,3,0,7,10,0,0,0,0,11,14,0,0,0,3,0,0,0,0],"split_type":[0,0,0,0,0,0,0,0,0,0,0,0,0,0,0,0,0,0,0],"sum_hessian":[2.5599405E1,1.4362006E1,1.1237398E1,3.9368215E0,1.0425184E1,7.0380917E0,4.1993065E0,1.7237943E0,2.2130272E0,4.1626754E0,6.2625093E0,1.9663334E0,2.232973E0,1.2237204E0,2.938955E0,4.5307055E0,1.7318034E0,1.224164E0,1.714791E0],"tree_param":{"num_deleted":"0","num_feature":"18","num_nodes":"19","size_leaf_vector":"1"}},{"base_weights":[8.086029E-2,4.8164934E-1,-6.215149E-1,6.239055E-1,-5.258446E-2,-1.18236184E-1,-2.9762515E-1,-2.1434394E-1,8.64061E-1,1.5920544E-1,-1.1168212E-1,-8.326658E-2,6.278E-2,1.1039323E0,4.0386498E-1,8.3387166E-2,-1.9623725E-1,1.2611495E-1,4.0878978E-2,-1.8050675E-1,9.53159E-2,-6.707417E-2,2.9569352E-2,1.2482988E-2,-3.8004488E-2],"categories":[],"categories_nodes":[],"categories_segments":[],"categories_sizes":[],"default_left":[0,0,0,0,0,0,0,0,0,0,0,0,0,0,0,0,0,0,0,0,0,0,0,0,0],"id":5,"left_children":[1,3,5,7,-1,-1,9,11,13,15,-1,-1,-1,17,19,-1,21,-1,-1,23,-1,-1,-1,-1,-1],"loss_changes":[7.838197E0,2.8526044E0,1.4948187E0,3.3844929E0,0E0,0E0,3.0896826E0,2.7828538E0,9.397402E-1,1.5714121E0,0E0,0E0,0E0,3.2316113E-1,2.058744E0,0E0,1.2847703E0,0E0,0E0,2.7217916E-1,0E0,0E0,0E0,0E0,0E0],"parents":[2147483647,0,0,1,1,2,2,3,3,6,6,7,7,8,8,9,9,13,13,14,14,16,16,19,19],"right_children":[2,4,6,8,-1,-1,10,12,14,16,-1,-1,-1,18,20,-1,22,-1,-1,24,-1,-1,-1,-1,-1],"split_conditions":[-1.0357826E-1,1.9011432E-1,-2.3034486E-1,-3.5582954E-1,-5.258446E-2,-1.18236184E-1,1.830338E-1,-3.037582E-1,-1.951078E-1,-3.842265E-1,-1.1168212E-1,-8.326658E-2,6.278E-2,-1.2250551E-1,-1.564074E-1,8.3387166E-2,3.337225E-1,1.2611495E-1,4.0878978E-2,-3.3671483E-1,9.53159E-2,-6.707417E-2,2.9569352E-2,1.2482988E-2,-3.8004488E-2],"split_indices":[13,7,3,11,0,0,8,8,12,0,0,0,0,3,5,0,0,0,0,16,0,0,0,0,0],"split_type":[0,0,0,0,0,0,0,0,0,0,0,0,0,0,0,0,0,0,0,0,0,0,0,0,0],"sum_hessian":[2.5780567E1,1.661435E1,9.166218E0,1.4892319E1,1.7220309E0,2.3853104E0,6.7809076E0,3.3403816E0,1.1551937E1,4.8704963E0,1.9104111E0,1.9326439E0,1.4077377E0,6.6742435E0,4.877694E0,1.2161367E0,3.6543596E0,4.7791367E0,1.8951066E0,2.68869E0,2.1890044E0,1.6751055E0,1.9792541E0,1.2106059E0,1.478084E0],"tree_param":{"num_deleted":"0","num_feature":"18","num_nodes":"25","size_leaf_vector":"1"}},{"base_weights":[-1.6801506E-1,2.1034676E-1,-6.25627E-1,-2.6285422E-1,6.020698E-1,-8.0598396E-1,-2.3671919E-1,-6.6230667E-1,5.6418788E-2,1.1608227E-1,-3.2628253E-1,-7.5016036E-3,-9.330883E-2,1.13171235E-1,-6.627062E-2,-9.83979E-2,-6.8991557E-3,-8.512466E-2,3.3100925E-2,-4.07834E-2,6.4374864E-2],"categories":[],"categories_nodes":[],"categories_segments":[],"categories_sizes":[],"default_left":[0,0,0,0,0,0,0,0,0,0,0,0,0,0,0,0,0,0,0,0,0],"id":6,"left_children":[1,3,5,7,9,11,13,15,-1,-1,17,-1,-1,19,-1,-1,-1,-1,-1,-1,-1],"loss_changes":[4.510681E0,2.8632832E0,6.2977886E-1,2.787067E0,4.6777954E0,6.3392115E-1,8.3846486E-1,9.600582E-1,0E0,0E0,1.6256131E0,0E0,0E0,1.2760739E0,0E0,0E0,0E0,0E0,0E0,0E0,0E0],"parents":[2147483647,0,0,1,1,2,2,3,3,4,4,5,5,6,6,7,7,10,10,13,13],"right_children":[2,4,6,8,10,12,14,16,-1,-1,18,-1,-1,20,-1,-1,-1,-1,-1,-1,-1],"split_conditions":[-1.06620744E-1,-5.602344E-1,2.2233406E-1,-1.1118447E-1,-1.1422695E-1,-9.409435E-1,5.8568217E-2,-2.1769695E-1,5.6418788E-2,1.1608227E-1,-7.627132E-2,-7.5016036E-3,-9.330883E-2,-7.627132E-2,-6.627062E-2,-9.83979E-2,-6.8991557E-3,-8.512466E-2,3.3100925E-2,-4.07834E-2,6.4374864E-2],"split_indices":[13,10,10,13,13,10,11,11,0,0,6,0,0,6,0,0,0,0,0,0,0],"split_type":[0,0,0,0,0,0,0,0,0,0,0,0,0,0,0,0,0,0,0,0,0],"sum_hessian":[2.429173E1,1.3593072E1,1.069866E1,6.3052797E0,7.2877917E0,6.576406E0,4.1222534E0,4.3860507E0,1.9192293E0,4.3932114E0,2.8945801E0,1.2097002E0,5.366706E0,2.666455E0,1.4557985E0,2.4171329E0,1.9689178E0,1.4452279E0,1.4493523E0,1.462086E0,1.2043692E0],"tree_param":{"num_deleted":"0","num_feature":"18","num_nodes":"21","size_leaf_vector":"1"}},{"base_weights":[-5.3452265E-2,1.5856513E-1,-8.7495834E-1,-3.3824584E-1,5.270549E-1,-1.09503746E-1,-1.9705018E-2,-5.3990006E-1,5.1021453E-2,1.03344396E-1,2.0174639E-1,1.7629059E-2,-6.994513E-1,-4.4737118E-1,7.39176E-1,-1.1589749E-1,-1.998825E-1,-1.0018416E-1,9.474999E-3,1.0296539E-1,-7.0150043E-3,4.2711053E-2,-9.7574815E-2],"categories":[],"categories_nodes":[],"categories_segments":[],"categories_sizes":[],"default_left":[0,0,0,0,0,0,0,0,0,0,0,0,0,0,0,0,0,0,0,0,0,0,0],"id":7,"left_children":[1,3,5,7,9,-1,-1,11,-1,-1,13,-1,15,17,19,-1,21,-1,-1,-1,-1,-1,-1],"loss_changes":[4.172603E0,3.7033834E0,5.1593876E-1,1.7826647E0,1.6771092E0,0E0,0E0,9.921353E-1,0E0,0E0,3.1954398E0,0E0,1.2420037E0,1.4002118E0,1.2169981E0,0E0,2.5008032E0,0E0,0E0,0E0,0E0,0E0,0E0],"parents":[2147483647,0,0,1,1,2,2,3,3,4,4,7,7,10,10,12,12,13,13,14,14,16,16],"right_children":[2,4,6,8,10,-1,-1,12,-1,-1,14,-1,16,18,20,-1,22,-1,-1,-1,-1,-1,-1],"split_conditions":[-9.1408335E-2,-5.6990296E-1,-3.055869E-2,-7.956437E-2,-1.1422695E-1,-1.09503746E-1,-1.9705018E-2,-1.0774187E0,5.1021453E-2,1.03344396E-1,-7.627132E-2,1.7629059E-2,-2.2370113E-1,-1.4863066E-1,6.4816035E-2,-1.1589749E-1,-7.627132E-2,-1.0018416E-1,9.474999E-3,1.0296539E-1,-7.0150043E-3,4.2711053E-2,-9.7574815E-2],"split_indices":[13,0,13,11,13,0,0,0,0,0,6,0,2,11,9,0,6,0,0,0,0,0,0],"split_type":[0,0,0,0,0,0,0,0,0,0,0,0,0,0,0,0,0,0,0,0,0,0,0],"sum_hessian":[2.216003E1,1.825555E1,3.9044793E0,7.8091087E0,1.0446443E1,2.483052E0,1.4214272E0,6.6033554E0,1.2057536E0,3.2345667E0,7.2118754E0,1.1839497E0,5.419406E0,3.3424156E0,3.86946E0,2.1353102E0,3.2840955E0,1.233161E0,2.1092546E0,2.6471324E0,1.2223276E0,2.0649066E0,1.219189E0],"tree_param":{"num_deleted":"0","num_feature":"18","num_nodes":"23","size_leaf_vector":"1"}},{"base_weights":[3.801433E-2,3.801752E-1,-6.432137E-1,-1.11307986E-1,8.040168E-1,-1.0330341E-1,-1.287961E-1,9.078289E-2,-6.5770745E-2,1.09338045E-1,2.2889774E-1,7.491115E-2,-6.416924E-1,-2.796159E-1,6.4762324E-2,-3.1194553E-2,6.877944E-2,-8.193166E-3,-8.946295E-2,1.5561193E-1,-9.170598E-2,-5.563116E-2,6.9333345E-2],"categories":[],"categories_nodes":[],"categories_segments":[],"categories_sizes":[],"default_left":[0,0,0,0,0,0,0,0,0,0,0,0,0,0,0,0,0,0,0,0,0,0,0],"id":8,"left_children":[1,3,5,7,9,-1,11,13,-1,-1,15,-1,17,19,-1,-1,-1,-1,-1,21,-1,-1,-1],"loss_changes":[5.869224E0,3.566527E0,1.5593207E0,1.0101606E0,1.2614942E0,0E0,2.6333432E0,1.6583006E0,0E0,0E0,1.2831314E0,0E0,4.3022084E-1,1.5297527E0,0E0,0E0,0E0,0E0,0E0,1.8503528E0,0E0,0E0,0E0],"parents":[2147483647,0,0,1,1,2,2,3,3,4,4,6,6,7,7,10,10,12,12,13,13,19,19],"right_children":[2,4,6,8,10,-1,12,14,-1,-1,16,-1,18,20,-1,-1,-1,-1,-1,22,-1,-1,-1],"split_conditions":[-1.0357826E-1,-4.7563246E-1,-1.4297436E-1,-1.4297436E-1,-1.706411E-1,-1.0330341E-1,4.236923E-1,-3.381842E-1,-6.5770745E-2,1.09338045E-1,-1.564074E-1,7.491115E-2,1.289458E-1,-1.3348174E-1,6.4762324E-2,-3.1194553E-2,6.877944E-2,-8.193166E-3,-8.946295E-2,-3.2162648E-1,-9.170598E-2,-5.563116E-2,6.9333345E-2],"split_indices":[13,10,17,17,2,0,17,3,0,0,5,0,8,14,0,0,0,0,0,5,0,0,0],"split_type":[0,0,0,0,0,0,0,0,0,0,0,0,0,0,0,0,0,0,0,0,0,0,0],"sum_hessian":[2.3131023E1,1.5691546E1,7.439477E0,7.6074243E0,8.084122E0,3.6587508E0,3.7807262E0,6.162149E0,1.4452751E0,4.778663E0,3.3054588E0,1.2244036E0,2.5563226E0,3.99957E0,2.162579E0,1.664248E0,1.6412108E0,1.2076536E0,1.3486689E0,2.8259656E0,1.1736042E0,1.201135E0,1.6248306E0],"tree_param":{"num_deleted":"0","num_feature":"18","num_nodes":"23","size_leaf_vector":"1"}},{"base_weights":[-2.9812733E-2,3.1051573E-1,-6.298717E-1,-7.2330016E-1,5.3146356E-1,-9.5666575E-1,1.2644199E-1,-9.082299E-2,-2.0635309E-2,7.673601E-1,-1.3527152E-1,-1.10753775E-1,-1.3382099E-2,9.70113E-2,-8.261035E-2,9.5018977E-1,-1.6368276E-2,-6.3038506E-2,4.4982858E-2,5.362008E-3,1.0775139E-1],"categories":[],"categories_nodes":[],"categories_segments":[],"categories_sizes":[],"default_left":[0,0,0,0,0,0,0,0,0,0,0,0,0,0,0,0,0,0,0,0,0],"id":9,"left_children":[1,3,5,7,9,11,13,-1,-1,15,17,-1,-1,-1,-1,19,-1,-1,-1,-1,-1],"loss_changes":[5.3221016E0,4.1963E0,2.4479942E0,1.3399911E-1,2.3570037E0,6.8245554E-1,3.7941358E0,0E0,0E0,1.9823322E0,1.6144456E0,0E0,0E0,0E0,0E0,9.8300934E-1,0E0,0E0,0E0,0E0,0E0],"parents":[2147483647,0,0,1,1,2,2,3,3,4,4,5,5,6,6,9,9,10,10,15,15],"right_children":[2,4,6,8,10,12,14,-1,-1,16,18,-1,-1,-1,-1,20,-1,-1,-1,-1,-1],"split_conditions":[-1.0357826E-1,-3.2162648E-1,1.2657793E-1,-4.119342E-1,-1.4297436E-1,-1.0498077E-2,6.898872E-1,-9.082299E-2,-2.0635309E-2,3.703323E-2,-1.322509E-1,-1.10753775E-1,-1.3382099E-2,9.70113E-2,-8.261035E-2,-3.419764E-1,-1.6368276E-2,-6.3038506E-2,4.4982858E-2,5.362008E-3,1.0775139E-1],"split_indices":[13,5,6,8,17,11,1,0,0,15,12,0,0,0,0,4,0,0,0,0,0],"split_type":[0,0,0,0,0,0,0,0,0,0,0,0,0,0,0,0,0,0,0,0,0],"sum_hessian":[2.4103258E1,1.5688129E1,8.415129E0,2.3621228E0,1.3326007E1,5.6911473E0,2.723982E0,1.1822724E0,1.1798503E0,9.731868E0,3.5941386E0,4.516958E0,1.174189E0,1.4347653E0,1.2892168E0,8.117301E0,1.6145667E0,1.9048508E0,1.6892878E0,1.1861316E0,6.9311695E0],"tree_param":{"num_deleted":"0","num_feature":"18","num_nodes":"21","size_leaf_vector":"1"}},{"base_weights":[7.5219765E-2,3.7781766E-1,-2.7826533E-1,5.386719E-1,-5.1311966E-2,-1.1022939E-1,8.1834264E-2,-1.1645799E-1,7.542376E-1,4.6387857E-1,-1.01175845E-1,-5.7520647E-2,3.61839E-2,2.4110423E-1,9.773228E-2,7.012522E-1,-1.7371288E-2,8.065342E-2,-6.384882E-2,-1.5330761E-2,1.0394399E0,-4.9950633E-2,4.4522833E-2,3.9701086E-2,1.2427268E-1],"categories":[],"categories_nodes":[],"categories_segments":[],"categories_sizes":[],"default_left":[0,0,0,0,0,0,0,0,0,0,0,0,0,0,0,0,0,0,0,0,0,0,0,0,0],"id":10,"left_children":[1,3,5,7,-1,-1,9,11,13,15,-1,-1,-1,17,-1,19,21,-1,-1,-1,23,-1,-1,-1,-1],"loss_changes":[2.8315334E0,2.3052745E0,3.7494707E0,1.8502882E0,0E0,0E0,4.443695E0,1.076149E0,8.545842E-1,8.9584315E-1,0E0,0E0,0E0,2.610471E0,0E0,1.663445E0,1.0099242E0,0E0,0E0,0E0,1.0379791E-2,0E0,0E0,0E0,0E0],"parents":[2147483647,0,0,1,1,2,2,3,3,6,6,7,7,8,8,9,9,13,13,15,15,16,16,20,20],"right_children":[2,4,6,8,-1,-1,10,12,14,16,-1,-1,-1,18,-1,20,22,-1,-1,-1,24,-1,-1,-1,-1],"split_conditions":[-1.0814199E-1,1.9011432E-1,-2.3034486E-1,-4.119342E-1,-5.1311966E-2,-1.1022939E-1,2.657671E-1,-8.0509317E-1,-4.3374023E-1,7.4857794E-2,-1.01175845E-1,-5.7520647E-2,3.61839E-2,-7.555794E-1,9.773228E-2,-7.8408726E-2,1.4581212E-1,8.065342E-2,-6.384882E-2,-1.5330761E-2,-1.414942E-1,-4.9950633E-2,4.4522833E-2,3.9701086E-2,1.2427268E-1],"split_indices":[13,7,3,8,0,0,11,0,0,8,0,0,0,0,0,7,1,0,0,0,8,0,0,0,0],"split_type":[0,0,0,0,0,0,0,0,0,0,0,0,0,0,0,0,0,0,0,0,0,0,0,0,0],"sum_hessian":[2.4488987E1,1.3157115E1,1.1331872E1,1.1479869E1,1.6772455E0,2.8192964E0,8.512576E0,2.9559965E0,8.523872E0,6.7353997E0,1.7771761E0,1.4054118E0,1.5505847E0,3.2133658E0,5.310507E0,4.2044377E0,2.5309618E0,2.0065508E0,1.2068151E0,1.3471162E0,2.8573217E0,1.2002474E0,1.3307145E0,1.3966314E0,1.4606903E0],"tree_param":{"num_deleted":"0","num_feature":"18","num_nodes":"25","size_leaf_vector":"1"}},{"base_weights":[1.074435E-1,-5.486565E-1,3.2265022E-1,-6.8898425E-2,-9.5288604E-2,9.294043E-1,-5.2978974E-2,-7.474578E-2,4.5601513E-2,-4.0495526E-3,1.1842512E-1,1.1903178E-1,-8.279948E-2,-1.3400257E-1,7.69769E-2,4.9009528E-2,-4.1199574E-1,-6.575733E-1,6.1922944E-3,-6.3056364E-3,-1.0441005E-1],"categories":[],"categories_nodes":[],"categories_segments":[],"categories_sizes":[],"default_left":[0,0,0,0,0,0,0,0,0,0,0,0,0,0,0,0,0,0,0,0,0],"id":11,"left_children":[1,3,5,7,-1,9,11,-1,-1,-1,-1,13,-1,15,-1,-1,17,19,-1,-1,-1],"loss_changes":[3.3825064E0,1.0935956E0,4.088931E0,1.6984044E0,0E0,1.736464E0,1.6840786E0,0E0,0E0,0E0,0E0,1.8497664E0,0E0,1.6747797E0,0E0,0E0,7.8749883E-1,9.2516494E-1,0E0,0E0,0E0],"parents":[2147483647,0,0,1,1,2,2,3,3,5,5,6,6,11,11,13,13,16,16,17,17],"right_children":[2,4,6,8,-1,10,12,-1,-1,-1,-1,14,-1,16,-1,-1,18,20,-1,-1,-1],"split_conditions":[-4.4602358E-1,-3.3671483E-1,-1.09663226E-1,-3.8999248E-1,-9.5288604E-2,-7.717394E-1,5.4203224E-1,-7.474578E-2,4.5601513E-2,-4.0495526E-3,1.1842512E-1,1.2657793E-1,-8.279948E-2,-8.034652E-1,7.69769E-2,4.9009528E-2,2.099382E-1,-1.706411E-1,6.1922944E-3,-6.3056364E-3,-1.0441005E-1],"split_indices":[3,16,13,16,0,10,11,0,0,0,0,6,0,10,0,0,0,2,0,0,0],"split_type":[0,0,0,0,0,0,0,0,0,0,0,0,0,0,0,0,0,0,0,0,0],"sum_hessian":[2.1702177E1,4.9775863E0,1.672459E1,2.8113687E0,2.1662176E0,5.831196E0,1.0893394E1,1.0413041E0,1.7700645E0,1.3883798E0,4.4428163E0,9.607478E0,1.2859164E0,7.4893684E0,2.1181095E0,2.072841E0,5.4165277E0,3.3125105E0,2.1040173E0,1.7633855E0,1.5491251E0],"tree_param":{"num_deleted":"0","num_feature":"18","num_nodes":"21","size_leaf_vector":"1"}},{"base_weights":[-6.073439E-3,1.1743999E-1,-9.6134715E-2,-5.3279996E-1,3.4997976E-1,2.2668827E-2,-7.62789E-1,5.7973695E-1,-2.5768626E-1,-8.519073E-2,-2.5189808E-2,7.3523514E-2,9.220998E-1,-8.971024E-2,3.5433397E-1,3.3101705E-1,-5.1837265E-2,1.1525512E-1,2.3887707E-2,-1.7236715E-2,7.260153E-2,-1.2597881E-1,7.703386E-2,-6.3681744E-2,4.6847057E-2],"categories":[],"categories_nodes":[],"categories_segments":[],"categories_sizes":[],"default_left":[0,0,0,0,0,0,0,0,0,0,0,0,0,0,0,0,0,0,0,0,0,0,0,0,0],"id":12,"left_children":[1,3,-1,5,7,-1,9,11,13,-1,-1,15,17,-1,19,21,-1,-1,-1,-1,-1,23,-1,-1,-1],"loss_changes":[2.8156013E0,3.3882513E0,0E0,1.2164682E0,2.4112458E0,0E0,4.620552E-3,2.0229096E0,2.3282096E0,0E0,0E0,1.0789933E0,8.4411E-1,0E0,7.793182E-1,1.0525283E0,0E0,0E0,0E0,0E0,0E0,1.2676655E0,0E0,0E0,0E0],"parents":[2147483647,0,0,1,1,3,3,4,4,6,6,7,7,8,8,11,11,12,12,14,14,15,15,21,21],"right_children":[2,4,-1,6,8,-1,10,12,14,-1,-1,16,18,-1,20,22,-1,-1,-1,-1,-1,24,-1,-1,-1],"split_conditions":[3.2942718E-1,-4.4602358E-1,-9.6134715E-2,-1.0279049E0,-1.0053578E-1,2.2668827E-2,-3.037582E-1,-4.3374023E-1,3.088519E-1,-8.519073E-2,-2.5189808E-2,-7.627132E-2,-1.2511823E-1,-8.971024E-2,-8.3300635E-2,-2.3484093E-1,-5.1837265E-2,1.1525512E-1,2.3887707E-2,-1.7236715E-2,7.260153E-2,-6.6598696E-1,7.703386E-2,-6.3681744E-2,4.6847057E-2],"split_indices":[6,3,0,0,13,0,8,0,3,0,0,6,14,0,14,4,0,0,0,0,0,10,0,0,0],"split_type":[0,0,0,0,0,0,0,0,0,0,0,0,0,0,0,0,0,0,0,0,0,0,0,0,0],"sum_hessian":[2.1906355E1,2.017488E1,1.7314775E0,4.9742885E0,1.520059E1,1.1595342E0,3.8147542E0,1.1063476E1,4.1371145E0,2.6798043E0,1.1349498E0,4.9537206E0,6.1097546E0,1.7954694E0,2.3416452E0,3.7591312E0,1.1945893E0,4.055051E0,2.054704E0,1.1906508E0,1.1509943E0,2.192092E0,1.5670393E0,1.1406255E0,1.0514665E0],"tree_param":{"num_deleted":"0","num_feature":"18","num_nodes":"25","size_leaf_vector":"1"}},{"base_weights":[3.1661484E-2,-8.9320205E-2,1.9158342E-1,3.5360208E-1,-8.0675334E-2,8.318182E-1,1.3603477E-1,-1.0807082E-2,1.06885016E-1,5.0754356E-1,-1.4633691E-1,8.011047E-1,-4.122065E-2,-5.193731E-1,5.480827E-1,1.8044049E-2,9.1815874E-2,-8.555987E-1,3.526399E-2,9.736847E-2,-1.9805668E-2,-9.461328E-3,-1.0370594E-1],"categories":[],"categories_nodes":[],"categories_segments":[],"categories_sizes":[],"default_left":[0,0,0,0,0,0,0,0,0,0,0,0,0,0,0,0,0,0,0,0,0,0,0],"id":13,"left_children":[1,-1,3,5,-1,7,9,-1,-1,11,13,15,-1,17,19,-1,-1,21,-1,-1,-1,-1,-1],"loss_changes":[3.5525703E0,0E0,3.5712273E0,1.7777255E0,0E0,1.338E0,1.5100346E0,0E0,0E0,1.9864647E0,2.5000849E0,1.9683814E-1,0E0,2.0834675E0,1.2964463E0,0E0,0E0,5.478339E-1,0E0,0E0,0E0,0E0,0E0],"parents":[2147483647,0,0,2,2,3,3,5,5,6,6,9,9,10,10,11,11,13,13,14,14,17,17],"right_children":[2,-1,4,6,-1,8,10,-1,-1,12,14,16,-1,18,20,-1,-1,22,-1,-1,-1,-1,-1],"split_conditions":[-3.2162648E-1,-8.9320205E-2,9.9568343E-1,-1.1422695E-1,-8.0675334E-2,-3.6092308E-1,-2.8519905E-1,-1.0807082E-2,1.06885016E-1,6.4816035E-2,8.164813E-1,-3.3671483E-1,-4.122065E-2,1.2657793E-1,1.1135637E0,1.8044049E-2,9.1815874E-2,-2.8343716E-1,3.526399E-2,9.736847E-2,-1.9805668E-2,-9.461328E-3,-1.0370594E-1],"split_indices":[5,0,7,13,0,17,0,0,0,9,0,16,0,6,0,0,0,16,0,0,0,0,0],"split_type":[0,0,0,0,0,0,0,0,0,0,0,0,0,0,0,0,0,0,0,0,0,0,0],"sum_hessian":[2.1862146E1,2.5470076E0,1.931514E1,1.717383E1,2.141308E0,4.487335E0,1.2686496E1,1.0133243E0,3.4740107E0,5.134173E0,7.552323E0,3.9897442E0,1.144429E0,5.077051E0,2.475272E0,1.0363171E0,2.953427E0,3.6778076E0,1.3992434E0,1.3820052E0,1.0932667E0,1.0010669E0,2.6767406E0],"tree_param":{"num_deleted":"0","num_feature":"18","num_nodes":"23","size_leaf_vector":"1"}},{"base_weights":[2.6074715E-2,1.864436E-1,-6.8816173E-1,-4.9227253E-1,3.335876E-1,-9.30021E-2,-1.2037194E-2,-7.4350074E-2,7.7695907E-3,6.998987E-1,9.002189E-2,8.924498E-1,-6.619447E-3,-4.060781E-1,5.360547E-1,2.7024398E-2,1.03210345E-1,-6.3485837E-1,3.24196E-2,-2.0997267E-2,7.8532815E-1,-9.004495E-3,-9.024172E-2,1.0664737E-1,2.3781506E-2],"categories":[],"categories_nodes":[],"categories_segments":[],"categories_sizes":[],"default_left":[0,0,0,0,0,0,0,0,0,0,0,0,0,0,0,0,0,0,0,0,0,0,0,0,0],"id":14,"left_children":[1,3,5,7,9,-1,-1,-1,-1,11,13,15,-1,17,19,-1,-1,21,-1,-1,23,-1,-1,-1,-1],"loss_changes":[2.747688E0,2.1078765E0,4.931574E-1,6.121355E-1,1.417221E0,0E0,0E0,0E0,0E0,1.014682E0,2.6766062E0,1.7692375E-1,0E0,1.1798384E0,1.3332237E0,0E0,0E0,6.1512005E-1,0E0,0E0,5.0371957E-1,0E0,0E0,0E0,0E0],"parents":[2147483647,0,0,1,1,2,2,3,3,4,4,9,9,10,10,11,11,13,13,14,14,17,17,20,20],"right_children":[2,4,6,8,10,-1,-1,-1,-1,12,14,16,-1,18,20,-1,-1,22,-1,-1,24,-1,-1,-1,-1],"split_conditions":[-9.1408335E-2,-3.2162648E-1,1.2657793E-1,-1.1422695E-1,-3.1733334E-1,-9.30021E-2,-1.2037194E-2,-7.4350074E-2,7.7695907E-3,-1.2250551E-1,-1.564074E-1,-8.0509317E-1,-6.619447E-3,-7.956437E-2,-6.6598696E-1,2.7024398E-2,1.03210345E-1,-1.282937E-1,3.24196E-2,-2.0997267E-2,2.0101255E-1,-9.004495E-3,-9.024172E-2,1.0664737E-1,2.3781506E-2],"split_indices":[13,5,6,13,17,0,0,0,0,3,5,0,0,11,10,0,0,15,0,0,3,0,0,0,0],"split_type":[0,0,0,0,0,0,0,0,0,0,0,0,0,0,0,0,0,0,0,0,0,0,0,0,0],"sum_hessian":[2.1868473E1,1.8462103E1,3.4063706E0,2.8715017E0,1.5590601E1,1.9414228E0,1.4649478E0,1.7817087E0,1.0897931E0,5.4781594E0,1.0112441E1,4.2460213E0,1.2321382E0,4.8299294E0,5.2825117E0,1.3163449E0,2.9296765E0,3.77725E0,1.0526795E0,1.3624934E0,3.9200184E0,1.6842531E0,2.0929968E0,1.9637766E0,1.9562417E0],"tree_param":{"num_deleted":"0","num_feature":"18","num_nodes":"25","size_leaf_vector":"1"}},{"base_weights":[1.04746304E-1,2.5233376E-1,-7.87544E-2,7.611039E-2,9.211133E-2,2.8336903E-1,-5.3251374E-1,4.33422E-1,-4.66121E-2,-9.695124E-2,4.6007585E-2,-1.1119802E-1,6.356117E-1,3.715106E-2,-5.1828552E-2,8.5524E-1,-2.3803368E-2,-2.7324677E-2,1.1139532E-1],"categories":[],"categories_nodes":[],"categories_segments":[],"categories_sizes":[],"default_left":[0,0,0,0,0,0,0,0,0,0,0,0,0,0,0,0,0,0,0],"id":15,"left_children":[1,3,-1,5,-1,7,9,11,-1,-1,-1,13,15,-1,-1,17,-1,-1,-1],"loss_changes":[3.0480466E0,2.2071958E0,0E0,2.2175293E0,0E0,1.6498928E0,2.4019446E0,1.3089142E0,0E0,0E0,0E0,9.580301E-1,1.8056123E0,0E0,0E0,2.315868E0,0E0,0E0,0E0],"parents":[2147483647,0,0,1,1,3,3,5,5,6,6,7,7,11,11,12,12,15,15],"right_children":[2,4,-1,6,-1,8,10,12,-1,-1,-1,14,16,-1,-1,18,-1,-1,-1],"split_conditions":[5.1087177E-1,7.7934605E-1,-7.87544E-2,-1.0053578E-1,9.211133E-2,6.4816035E-2,-1.17581055E-1,-3.419764E-1,-4.66121E-2,-9.695124E-2,4.6007585E-2,-2.7912056E-1,1.0600631E-1,3.715106E-2,-5.1828552E-2,-1.0279049E0,-2.3803368E-2,-2.7324677E-2,1.1139532E-1],"split_indices":[17,0,0,13,0,9,2,4,0,0,0,6,10,0,0,0,0,0,0],"split_type":[0,0,0,0,0,0,0,0,0,0,0,0,0,0,0,0,0,0,0],"sum_hessian":[2.0636452E1,1.8322983E1,2.3134687E0,1.5383291E1,2.9396913E0,1.1874129E1,3.5091624E0,1.0244768E1,1.6293608E0,2.452619E0,1.0565432E0,2.895488E0,7.3492804E0,1.3646878E0,1.5308002E0,5.889715E0,1.4595652E0,1.0879571E0,4.801758E0],"tree_param":{"num_deleted":"0","num_feature":"18","num_nodes":"19","size_leaf_vector":"1"}},{"base_weights":[8.527259E-3,1.3221192E-1,-8.412082E-2,-1.3611634E-1,5.264622E-1,-3.095331E-1,3.8451785E-1,7.086614E-1,7.423396E-2,3.0102264E-3,-6.573755E-1,7.288077E-2,-1.456628E-2,1.3231163E-2,8.12161E-1,-3.0340178E-2,4.4007793E-2,-5.456477E-2,3.514403E-1,-6.3857585E-3,-9.912336E-2,5.8319834E-3,1.0548957E-1,6.8836264E-2,-3.052781E-2],"categories":[],"categories_nodes":[],"categories_segments":[],"categories_sizes":[],"default_left":[0,0,0,0,0,0,0,0,0,0,0,0,0,0,0,0,0,0,0,0,0,0,0,0,0],"id":16,"left_children":[1,3,-1,5,7,9,11,13,15,17,19,-1,-1,-1,21,-1,-1,-1,23,-1,-1,-1,-1,-1,-1],"loss_changes":[2.2134585E0,2.0102413E0,0E0,1.1752329E0,5.757954E-1,1.0162383E0,7.211174E-1,2.0985198E-1,5.904402E-1,1.3214772E0,8.1251776E-1,0E0,0E0,0E0,7.2803855E-1,0E0,0E0,0E0,1.1444236E0,0E0,0E0,0E0,0E0,0E0,0E0],"parents":[2147483647,0,0,1,1,3,3,4,4,5,5,6,6,7,7,8,8,9,9,10,10,14,14,18,18],"right_children":[2,4,-1,6,8,10,12,14,16,18,20,-1,-1,-1,22,-1,-1,-1,24,-1,-1,-1,-1,-1,-1],"split_conditions":[4.6245012E-1,-1.4863066E-1,-8.412082E-2,3.7038755E-1,4.1268855E-1,-1.3348174E-1,-1.0357826E-1,-2.8343716E-1,1.4581212E-1,-3.5582954E-1,-2.8676325E-1,7.288077E-2,-1.456628E-2,1.3231163E-2,-8.3519095E-1,-3.0340178E-2,4.4007793E-2,-5.456477E-2,-1.951078E-1,-6.3857585E-3,-9.912336E-2,5.8319834E-3,1.0548957E-1,6.8836264E-2,-3.052781E-2],"split_indices":[16,11,0,10,10,14,13,16,1,11,11,0,0,0,10,0,0,0,12,0,0,0,0,0,0],"split_type":[0,0,0,0,0,0,0,0,0,0,0,0,0,0,0,0,0,0,0,0,0,0,0,0,0],"sum_hessian":[1.9002436E1,1.7325066E1,1.6773709E0,1.0698423E1,6.6266418E0,8.329455E0,2.3689682E0,4.3193617E0,2.30728E0,4.9095097E0,3.4199457E0,1.2091365E0,1.1598319E0,1.0044335E0,3.3149283E0,1.2193295E0,1.0879506E0,1.6870176E0,3.222492E0,1.6600517E0,1.7598941E0,1.1095015E0,2.2054267E0,2.0979671E0,1.1245248E0],"tree_param":{"num_deleted":"0","num_feature":"18","num_nodes":"25","size_leaf_vector":"1"}},{"base_weights":[3.3479303E-3,-1.4937213E-1,7.8398216E-1,4.430194E-2,-7.89889E-1,9.1380596E-2,2.3741981E-2,-2.6072392E-1,4.4340694E-1,-1.035455E-1,-5.9512206E-3,7.874783E-2,-8.211886E-2,6.59316E-1,-3.043448E-2,-2.1684256E-1,8.2257435E-2,-6.5085776E-3,8.618781E-1,1.1953576E-1,-7.3411934E-2,2.1162823E-2,1.0272556E-1,-3.434147E-2,7.086367E-2],"categories":[],"categories_nodes":[],"categories_segments":[],"categories_sizes":[],"default_left":[0,0,0,0,0,0,0,0,0,0,0,0,0,0,0,0,0,0,0,0,0,0,0,0,0],"id":17,"left_children":[1,3,5,7,9,-1,-1,11,13,-1,-1,15,-1,17,-1,19,-1,-1,21,23,-1,-1,-1,-1,-1],"loss_changes":[2.5867298E0,2.2884593E0,3.490877E-2,1.9288793E0,7.043352E-1,0E0,0E0,1.7907727E0,1.3021592E0,0E0,0E0,1.621262E0,0E0,8.792701E-1,0E0,1.0426103E0,0E0,0E0,2.6159525E-1,1.3847764E0,0E0,0E0,0E0,0E0,0E0],"parents":[2147483647,0,0,1,1,2,2,3,3,4,4,7,7,8,8,11,11,13,13,15,15,18,18,19,19],"right_children":[2,4,6,8,10,-1,-1,12,14,-1,-1,16,-1,18,-1,20,-1,-1,22,24,-1,-1,-1,-1,-1],"split_conditions":[8.164813E-1,2.0101255E-1,1.4581212E-1,-3.381842E-1,1.289458E-1,9.1380596E-2,2.3741981E-2,-1.0814199E-1,1.0600631E-1,-1.035455E-1,-5.9512206E-3,-1.1118447E-1,-8.211886E-2,-2.1769695E-1,-3.043448E-2,-7.8408726E-2,8.2257435E-2,-6.5085776E-3,-6.6598696E-1,-5.602344E-1,-7.3411934E-2,2.1162823E-2,1.0272556E-1,-3.434147E-2,7.086367E-2],"split_indices":[0,3,1,3,8,0,0,13,10,0,0,13,0,11,0,7,0,0,10,10,0,0,0,0,0],"split_type":[0,0,0,0,0,0,0,0,0,0,0,0,0,0,0,0,0,0,0,0,0,0,0,0,0],"sum_hessian":[1.971511E1,1.7165564E1,2.5495472E0,1.38949585E1,3.2706058E0,1.5172443E0,1.032303E0,8.072262E0,5.8226967E0,2.1350598E0,1.135546E0,5.5625424E0,2.5097194E0,4.6098866E0,1.2128098E0,4.4876604E0,1.0748816E0,1.1556703E0,3.4542165E0,3.1852486E0,1.302412E0,1.1626084E0,2.291608E0,2.017125E0,1.1681236E0],"tree_param":{"num_deleted":"0","num_feature":"18","num_nodes":"25","size_leaf_vector":"1"}},{"base_weights":[-6.998219E-2,-2.2704177E-1,4.152142E-1,-7.3365085E-2,-8.540683E-2,8.470037E-2,-3.8665354E-2,3.8126868E-1,-2.796818E-1,8.4004425E-2,-6.1406367E-2,-8.217099E-2,-4.8599187E-2,-2.4952045E-2,1.5155843E-2,4.9930492E-1,-4.3243733E-1,6.7087434E-2,3.8096537E-3,5.5660732E-2,-8.353291E-1,-2.4200398E-2,-9.6611574E-2],"categories":[],"categories_nodes":[],"categories_segments":[],"categories_sizes":[],"default_left":[0,0,0,0,0,0,0,0,0,0,0,0,0,0,0,0,0,0,0,0,0,0,0],"id":18,"left_children":[1,3,5,-1,7,-1,-1,9,11,-1,13,-1,15,-1,-1,17,19,-1,-1,-1,21,-1,-1],"loss_changes":[1.6512065E0,1.0912235E0,2.179789E0,0E0,1.3486638E0,0E0,0E0,9.5529574E-1,1.2438514E0,0E0,1.6587564E-1,0E0,1.9506946E0,0E0,0E0,2.8006065E-1,2.611364E0,0E0,0E0,0E0,9.42297E-2,0E0,0E0],"parents":[2147483647,0,0,1,1,2,2,4,4,7,7,8,8,10,10,12,12,15,15,16,16,20,20],"right_children":[2,4,6,-1,8,-1,-1,10,12,-1,14,-1,16,-1,-1,18,20,-1,-1,-1,22,-1,-1],"split_conditions":[8.164813E-1,-3.5582954E-1,5.1087177E-1,-7.3365085E-2,-3.469318E-1,8.470037E-2,-3.8665354E-2,-4.4602358E-1,-4.4602358E-1,8.4004425E-2,-3.1733334E-1,-8.217099E-2,-1.865641E-1,-2.4952045E-2,1.5155843E-2,2.0101255E-1,-2.1769695E-1,6.7087434E-2,3.8096537E-3,5.5660732E-2,9.31732E-2,-2.4200398E-2,-9.6611574E-2],"split_indices":[0,11,17,0,7,0,0,3,3,0,17,0,17,0,0,3,11,0,0,0,3,0,0],"split_type":[0,0,0,0,0,0,0,0,0,0,0,0,0,0,0,0,0,0,0,0,0,0,0],"sum_hessian":[1.9430954E1,1.5081188E1,4.349765E0,2.38183E0,1.2699358E1,2.790727E0,1.559038E0,3.4498405E0,9.249517E0,1.253301E0,2.1965394E0,2.0007164E0,7.248801E0,1.0751748E0,1.1213646E0,2.862272E0,4.3865294E0,1.7548622E0,1.1074098E0,1.1592348E0,3.2272947E0,1.0977275E0,2.1295671E0],"tree_param":{"num_deleted":"0","num_feature":"18","num_nodes":"23","size_leaf_vector":"1"}},{"base_weights":[-1.2127839E-1,-3.3036837E-1,4.3247157E-1,-2.5236607E-2,-7.814581E-1,-7.6055652E-3,6.788078E-1,-5.907904E-1,2.7588752E-1,-9.513054E-1,-7.5923465E-3,9.611376E-2,-7.7366005E-3,-7.929029E-2,-1.6254079E-2,6.3596386E-1,-2.1438622E-1,-1.06322005E-1,-2.7428383E-2,1.0101427E-2,9.076911E-2,2.144496E-2,-5.0950285E-2],"categories":[],"categories_nodes":[],"categories_segments":[],"categories_sizes":[],"default_left":[0,0,0,0,0,0,0,0,0,0,0,0,0,0,0,0,0,0,0,0,0,0,0],"id":19,"left_children":[1,3,5,7,9,-1,11,13,15,17,-1,-1,-1,-1,-1,19,21,-1,-1,-1,-1,-1,-1],"loss_changes":[2.4363937E0,2.0374942E0,7.860173E-1,1.8572955E0,6.4645267E-1,0E0,9.39026E-1,1.978656E-1,1.4027779E0,6.804609E-2,0E0,0E0,0E0,0E0,0E0,5.4618275E-1,5.883551E-1,0E0,0E0,0E0,0E0,0E0,0E0],"parents":[2147483647,0,0,1,1,2,2,3,3,4,4,6,6,7,7,8,8,9,9,15,15,16,16],"right_children":[2,4,6,8,10,-1,12,14,16,18,-1,-1,-1,-1,-1,20,22,-1,-1,-1,-1,-1,-1],"split_conditions":[3.337225E-1,-1.2511823E-1,-1.564074E-1,-3.419764E-1,3.0774736E-1,-7.6055652E-3,1.4771916E-1,-3.5582954E-1,-3.1733334E-1,7.497436E-2,-7.5923465E-3,9.611376E-2,-7.7366005E-3,-7.929029E-2,-1.6254079E-2,-3.3671483E-1,-1.1118447E-1,-1.06322005E-1,-2.7428383E-2,1.0101427E-2,9.076911E-2,2.144496E-2,-5.0950285E-2],"split_indices":[0,14,5,4,12,0,2,11,17,17,0,0,0,0,0,16,13,0,0,0,0,0,0],"split_type":[0,0,0,0,0,0,0,0,0,0,0,0,0,0,0,0,0,0,0,0,0,0,0],"sum_hessian":[1.8808674E1,1.3946156E1,4.862519E0,8.948825E0,4.9973307E0,1.8123742E0,3.0501444E0,2.775011E0,6.173814E0,3.7469575E0,1.250373E0,2.0235612E0,1.0265831E0,1.3067794E0,1.4682317E0,3.3882148E0,2.785599E0,2.7259142E0,1.0210433E0,1.6033831E0,1.7848318E0,1.2469653E0,1.5386336E0],"tree_param":{"num_deleted":"0","num_feature":"18","num_nodes":"23","size_leaf_vector":"1"}},{"base_weights":[-7.9216376E-2,1.2367654E-1,-4.2632675E-1,-4.8200315E-1,3.149909E-1,-7.050574E-1,3.1962052E-2,-7.122537E-2,6.3974946E-3,6.154327E-1,1.3472736E-2,1.5544298E-2,-9.0634756E-2,1.0112246E-1,-2.015848E-2,-2.3805779E-1,5.7024773E-2,3.4086782E-2,-4.5777974E-1,1.3519163E-2,-7.372342E-2],"categories":[],"categories_nodes":[],"categories_segments":[],"categories_sizes":[],"default_left":[0,0,0,0,0,0,0,0,0,0,0,0,0,0,0,0,0,0,0,0,0],"id":20,"left_children":[1,3,5,7,9,11,-1,-1,-1,13,15,-1,-1,-1,-1,17,-1,-1,19,-1,-1],"loss_changes":[1.515753E0,1.76083E0,1.865458E0,5.142707E-1,1.0024291E0,1.1895711E0,0E0,0E0,0E0,2.0037897E0,1.058799E0,0E0,0E0,0E0,0E0,8.232844E-1,0E0,0E0,8.00479E-1,0E0,0E0],"parents":[2147483647,0,0,1,1,2,2,3,3,4,4,5,5,9,9,10,10,15,15,18,18],"right_children":[2,4,6,8,10,12,-1,-1,-1,14,16,-1,-1,-1,-1,18,-1,-1,20,-1,-1],"split_conditions":[-1.0509951E-1,-3.2162648E-1,1.2657793E-1,-1.1422695E-1,-2.3159878E-1,-9.409435E-1,3.1962052E-2,-7.122537E-2,6.3974946E-3,-3.1733334E-1,1.289458E-1,1.5544298E-2,-9.0634756E-2,1.0112246E-1,-2.015848E-2,-8.669853E-1,5.7024773E-2,3.4086782E-2,-3.037582E-1,1.3519163E-2,-7.372342E-2],"split_indices":[13,5,6,13,9,10,0,0,0,17,8,0,0,0,0,0,0,0,8,0,0],"split_type":[0,0,0,0,0,0,0,0,0,0,0,0,0,0,0,0,0,0,0,0,0],"sum_hessian":[1.9773882E1,1.2885657E1,6.8882256E0,2.728405E0,1.0157252E1,5.0544105E0,1.8338151E0,1.7048762E0,1.0235287E0,4.56622E0,5.591032E0,1.0013745E0,4.053036E0,2.9159358E0,1.650284E0,4.245504E0,1.3455285E0,1.0163236E0,3.22918E0,1.1997256E0,2.0294545E0],"tree_param":{"num_deleted":"0","num_feature":"18","num_nodes":"21","size_leaf_vector":"1"}},{"base_weights":[5.2843485E-2,2.741326E-1,-5.284802E-1,4.248919E-1,-5.424245E-2,-9.103434E-2,9.797315E-3,-2.7490115E-1,6.397631E-1,3.459903E-2,-6.442389E-2,7.923521E-1,1.5962857E-1,2.1780299E-3,9.7250156E-2,6.871767E-2,-3.8800944E-2],"categories":[],"categories_nodes":[],"categories_segments":[],"categories_sizes":[],"default_left":[0,0,0,0,0,0,0,0,0,0,0,0,0,0,0,0,0],"id":21,"left_children":[1,3,5,7,-1,-1,-1,9,11,-1,-1,13,15,-1,-1,-1,-1],"loss_changes":[2.5957394E0,2.0102577E0,1.42748E0,2.0953038E0,0E0,0E0,0E0,1.0709685E0,6.1105204E-1,0E0,0E0,1.0042491E0,1.3298159E0,0E0,0E0,0E0,0E0],"parents":[2147483647,0,0,1,1,2,2,3,3,7,7,8,8,11,11,12,12],"right_children":[2,4,6,8,-1,-1,-1,10,12,-1,-1,14,16,-1,-1,-1,-1],"split_conditions":[-1.0053578E-1,6.4816035E-2,4.8226368E-1,-3.2162648E-1,-5.424245E-2,-9.103434E-2,9.797315E-3,-2.7912056E-1,1.0600631E-1,3.459903E-2,-6.442389E-2,-3.9554414E-1,-1.706411E-1,2.1780299E-3,9.7250156E-2,6.871767E-2,-3.8800944E-2],"split_indices":[13,9,0,5,0,0,0,6,10,0,0,4,2,0,0,0,0],"split_type":[0,0,0,0,0,0,0,0,0,0,0,0,0,0,0,0,0],"sum_hessian":[1.8052038E1,1.3457633E1,4.594406E0,1.1765118E1,1.6925153E0,2.5728934E0,2.0215125E0,2.698209E0,9.066909E0,1.0299613E0,1.6682477E0,6.386863E0,2.6800454E0,1.4226247E0,4.9642386E0,1.23528E0,1.4447653E0],"tree_param":{"num_deleted":"0","num_feature":"18","num_nodes":"17","size_leaf_vector":"1"}},{"base_weights":[1.1331594E-2,-3.3232573E-1,2.337208E-1,3.8628913E-2,-5.014996E-1,6.3045406E-1,-1.9800782E-1,-8.9240775E-2,-2.0008597E-1,-2.7768603E-2,9.374233E-2,-5.674735E-1,2.4056506E-1,2.584111E-1,-5.66996E-1,1.6312005E-2,-8.889097E-2,6.366338E-2,-3.9483067E-2,-1.4293875E-2,5.3113647E-2,-1.3869703E-2,-7.513331E-2],"categories":[],"categories_nodes":[],"categories_segments":[],"categories_sizes":[],"default_left":[0,0,0,0,0,0,0,0,0,0,0,0,0,0,0,0,0,0,0,0,0,0,0],"id":22,"left_children":[1,3,5,-1,7,9,11,-1,13,-1,-1,15,17,19,21,-1,-1,-1,-1,-1,-1,-1,-1],"loss_changes":[1.5958812E0,1.1927396E0,2.2911327E0,0E0,6.564405E-1,2.1643004E0,1.2412343E0,0E0,1.0365127E0,0E0,0E0,1.0839078E0,1.2126002E0,4.085235E-1,1.525265E-1,0E0,0E0,0E0,0E0,0E0,0E0,0E0,0E0],"parents":[2147483647,0,0,1,1,2,2,4,4,5,5,6,6,8,8,11,11,12,12,13,13,14,14],"right_children":[2,4,6,-1,8,10,12,-1,14,-1,-1,16,18,20,22,-1,-1,-1,-1,-1,-1,-1,-1],"split_conditions":[-3.381842E-1,-1.1021755E0,2.0101255E-1,3.8628913E-2,-3.2162648E-1,-2.1769695E-1,3.337225E-1,-8.9240775E-2,-2.3159878E-1,-2.7768603E-2,9.374233E-2,-5.285087E-1,5.8568217E-2,-5.6990296E-1,6.4816035E-2,1.6312005E-2,-8.889097E-2,6.366338E-2,-3.9483067E-2,-1.4293875E-2,5.3113647E-2,-1.3869703E-2,-7.513331E-2],"split_indices":[3,0,3,0,5,11,0,0,9,0,0,10,11,0,9,0,0,0,0,0,0,0,0],"split_type":[0,0,0,0,0,0,0,0,0,0,0,0,0,0,0,0,0,0,0,0,0,0,0],"sum_hessian":[1.886518E1,7.2175617E0,1.1647617E1,1.1307954E0,6.0867662E0,5.8299417E0,5.8176756E0,1.7963325E0,4.2904334E0,1.4968994E0,4.333042E0,2.9980924E0,2.8195832E0,2.0386329E0,2.2518008E0,1.0665209E0,1.9315715E0,1.7357002E0,1.083883E0,1.0173545E0,1.0212784E0,1.2048335E0,1.0469673E0],"tree_param":{"num_deleted":"0","num_feature":"18","num_nodes":"23","size_leaf_vector":"1"}},{"base_weights":[-6.775779E-3,2.583281E-1,-2.0077167E-1,-4.7896046E-2,4.5100132E-1,-5.351936E-1,1.4682372E-1,7.2950166E-1,-2.930522E-2,3.5896597E-3,-7.55883E-1,4.2266363E-1,-3.4486454E-2,-6.991088E-3,9.389931E-2,-9.424583E-2,-2.7744198E-2,-1.9039169E-2,7.514914E-2],"categories":[],"categories_nodes":[],"categories_segments":[],"categories_sizes":[],"default_left":[0,0,0,0,0,0,0,0,0,0,0,0,0,0,0,0,0,0,0],"id":23,"left_children":[1,3,5,-1,7,9,11,13,-1,-1,15,17,-1,-1,-1,-1,-1,-1,-1],"loss_changes":[1.0548809E0,1.448829E0,1.4530997E0,0E0,1.7462528E0,8.138002E-1,1.0385646E0,1.014833E0,0E0,0E0,1.4444089E-1,1.08376E0,0E0,0E0,0E0,0E0,0E0,0E0,0E0],"parents":[2147483647,0,0,1,1,2,2,4,4,5,5,6,6,7,7,10,10,11,11],"right_children":[2,4,6,-1,8,10,12,14,-1,-1,16,18,-1,-1,-1,-1,-1,-1,-1],"split_conditions":[-1.3348174E-1,-3.6092308E-1,-4.6261344E-2,-4.7896046E-2,1.1091074E-1,-1.282937E-1,5.1087177E-1,-3.9826298E-1,-2.930522E-2,3.5896597E-3,-1.0814199E-1,-1.0002767E-1,-3.4486454E-2,-6.991088E-3,9.389931E-2,-9.424583E-2,-2.7744198E-2,-1.9039169E-2,7.514914E-2],"split_indices":[14,17,5,0,0,15,17,1,0,0,13,14,0,0,0,0,0,0,0],"split_type":[0,0,0,0,0,0,0,0,0,0,0,0,0,0,0,0,0,0,0],"sum_hessian":[1.8502897E1,7.6784043E0,1.0824492E1,1.2829942E0,6.3954105E0,5.2417226E0,5.58277E0,4.6678023E0,1.7276078E0,1.6943926E0,3.5473301E0,3.6663241E0,1.9164456E0,1.1075834E0,3.560219E0,1.8543471E0,1.692983E0,1.4269553E0,2.2393687E0],"tree_param":{"num_deleted":"0","num_feature":"18","num_nodes":"19","size_leaf_vector":"1"}},{"base_weights":[-1.7822427E-1,-6.2383384E-1,-6.608389E-2,-7.363056E-3,-8.479868E-2,5.085595E-1,-2.5205594E-1,-2.5299136E-2,8.561179E-2,9.1890015E-2,-6.2584794E-1,-2.6083618E-1,3.7566757E-1,-9.005992E-1,-2.6759363E-3,1.573235E-2,-5.756534E-2,8.555663E-2,-1.3106366E-1,-3.093545E-2,-1.0646968E-1,8.839879E-3,-2.880391E-2],"categories":[],"categories_nodes":[],"categories_segments":[],"categories_sizes":[],"default_left":[0,0,0,0,0,0,0,0,0,0,0,0,0,0,0,0,0,0,0,0,0,0,0],"id":24,"left_children":[1,3,5,-1,-1,7,9,-1,-1,11,13,15,17,19,-1,-1,-1,-1,21,-1,-1,-1,-1],"loss_changes":[9.030639E-1,3.915242E-1,1.8611431E0,0E0,0E0,1.3537264E0,1.7185233E0,0E0,0E0,8.587612E-1,1.016053E0,6.143453E-1,1.2360318E0,8.799505E-2,0E0,0E0,0E0,0E0,1.3278002E-1,0E0,0E0,0E0,0E0],"parents":[2147483647,0,0,1,1,2,2,5,5,6,6,9,9,10,10,11,11,12,12,13,13,18,18],"right_children":[2,4,6,-1,-1,8,10,-1,-1,12,14,16,18,20,-1,-1,-1,-1,22,-1,-1,-1,-1],"split_conditions":[-3.2162648E-1,-2.7912056E-1,-1.1422695E-1,-7.363056E-3,-8.479868E-2,-5.6990296E-1,-3.763043E-2,-2.5299136E-2,8.561179E-2,-6.56552E-1,-9.74933E-2,-3.1733334E-1,-5.179334E-1,-1.706411E-1,-2.6759363E-3,1.573235E-2,-5.756534E-2,8.555663E-2,-1.7688183E-1,-3.093545E-2,-1.0646968E-1,8.839879E-3,-2.880391E-2],"split_indices":[5,6,13,0,0,0,0,0,0,0,13,17,10,2,0,0,0,0,16,0,0,0,0],"split_type":[0,0,0,0,0,0,0,0,0,0,0,0,0,0,0,0,0,0,0,0,0,0,0],"sum_hessian":[1.789681E1,2.6808817E0,1.521593E1,1.160591E0,1.5202907E0,3.2962122E0,1.1919718E1,1.1181886E0,2.1780238E0,6.6004553E0,5.319262E0,2.9787765E0,3.6216788E0,3.3017478E0,2.0175145E0,1.4942677E0,1.4845088E0,1.506525E0,2.1151538E0,1.3441072E0,1.9576406E0,1.0641963E0,1.0509573E0],"tree_param":{"num_deleted":"0","num_feature":"18","num_nodes":"23","size_leaf_vector":"1"}},{"base_weights":[3.2727013E-3,1.0824571E-1,-7.286108E-2,-9.2044555E-2,4.6702114E-1,2.8162977E-1,-4.2527494E-1,-2.912435E-2,7.17975E-2,-4.794256E-2,5.5488217E-1,-6.100854E-2,-7.3114716E-2,1.655986E-2,7.5863324E-2,-3.9571904E-2,3.2331716E-2],"categories":[],"categories_nodes":[],"categories_segments":[],"categories_sizes":[],"default_left":[0,0,0,0,0,0,0,0,0,0,0,0,0,0,0,0,0],"id":25,"left_children":[1,3,-1,5,7,9,11,-1,-1,-1,13,15,-1,-1,-1,-1,-1],"loss_changes":[1.4707279E0,1.2440932E0,0E0,1.5594513E0,1.3799249E0,1.524558E0,6.807405E-1,0E0,0E0,0E0,2.643336E-1,6.5052676E-1,0E0,0E0,0E0,0E0,0E0],"parents":[2147483647,0,0,1,1,3,3,4,4,5,5,6,6,10,10,11,11],"right_children":[2,4,-1,6,8,10,12,-1,-1,-1,14,16,-1,-1,-1,-1,-1],"split_conditions":[7.8211606E-1,-7.627132E-2,-7.286108E-2,-2.1095715E-1,-6.317951E-1,-3.5582954E-1,-3.3471277E-1,-2.912435E-2,7.17975E-2,-4.794256E-2,-2.1769695E-1,-6.0703826E-1,-7.3114716E-2,1.655986E-2,7.5863324E-2,-3.9571904E-2,3.2331716E-2],"split_indices":[16,6,0,15,0,11,0,0,0,0,11,0,0,0,0,0,0],"split_type":[0,0,0,0,0,0,0,0,0,0,0,0,0,0,0,0,0],"sum_hessian":[1.7116556E1,1.5714716E1,1.4018394E0,1.056188E1,5.152836E0,5.0517983E0,5.5100822E0,1.2413902E0,3.9114454E0,1.1352935E0,3.9165049E0,3.0624437E0,2.4476385E0,1.9684207E0,1.948084E0,1.6210345E0,1.4414092E0],"tree_param":{"num_deleted":"0","num_feature":"18","num_nodes":"17","size_leaf_vector":"1"}},{"base_weights":[-9.5524594E-2,1.4480628E-2,-7.5509936E-2,-4.1291535E-1,2.291565E-1,-6.921158E-1,2.7201569E-2,-1.8893845E-2,5.111751E-1,-8.3835416E-2,-1.4290306E-2,4.4810203E-1,-5.503936E-1,2.9766564E-3,7.0194674E-1,6.2480303E-3,7.50363E-2,-1.3678839E-3,-8.1510596E-2,2.0059891E-2,8.832534E-2],"categories":[],"categories_nodes":[],"categories_segments":[],"categories_sizes":[],"default_left":[0,0,0,0,0,0,0,0,0,0,0,0,0,0,0,0,0,0,0,0,0],"id":26,"left_children":[1,3,-1,5,7,9,-1,11,13,-1,-1,15,17,-1,19,-1,-1,-1,-1,-1,-1],"loss_changes":[1.2920859E0,1.5731512E0,0E0,1.2868536E0,8.0502474E-1,2.3063779E-1,0E0,1.987445E0,4.7101438E-1,0E0,0E0,4.5251417E-1,5.186472E-1,0E0,1.6748369E-1,0E0,0E0,0E0,0E0,0E0,0E0],"parents":[2147483647,0,0,1,1,3,3,4,4,5,5,7,7,8,8,11,11,12,12,14,14],"right_children":[2,4,-1,6,8,10,-1,12,14,-1,-1,16,18,-1,20,-1,-1,-1,-1,-1,-1],"split_conditions":[4.6245012E-1,-6.0703826E-1,-7.5509936E-2,-1.4863066E-1,-1.564074E-1,-7.717394E-1,2.7201569E-2,1.1658156E-1,-1.706411E-1,-8.3835416E-2,-1.4290306E-2,-3.3671483E-1,-3.3671483E-1,2.9766564E-3,-5.2622445E-2,6.2480303E-3,7.50363E-2,-1.3678839E-3,-8.1510596E-2,2.0059891E-2,8.832534E-2],"split_indices":[16,0,0,11,5,10,0,10,2,0,0,16,16,0,10,0,0,0,0,0,0],"split_type":[0,0,0,0,0,0,0,0,0,0,0,0,0,0,0,0,0,0,0,0,0],"sum_hessian":[1.6657253E1,1.5114476E1,1.5427775E0,4.7447553E0,1.036972E1,3.3632812E0,1.3814741E0,6.0135174E0,4.356203E0,2.240295E0,1.1229862E0,3.2845218E0,2.7289956E0,1.564429E0,2.791774E0,1.9734819E0,1.31104E0,1.2487599E0,1.4802358E0,1.300911E0,1.4908632E0],"tree_param":{"num_deleted":"0","num_feature":"18","num_nodes":"21","size_leaf_vector":"1"}},{"base_weights":[-5.5852313E-2,-1.8812719E-1,4.9794725E-1,-6.50641E-2,-7.1793266E-2,8.76385E-2,-2.4111612E-2,5.123734E-2,-1.708897E-1,7.533514E-3,-3.96704E-1,-2.2181745E-1,5.3130604E-2,-6.3359785E-1,3.2485954E-2,1.8917884E-1,-6.267714E-2,-9.7104385E-2,4.1352706E-3,-2.3923812E-2,4.7063388E-2],"categories":[],"categories_nodes":[],"categories_segments":[],"categories_sizes":[],"default_left":[0,0,0,0,0,0,0,0,0,0,0,0,0,0,0,0,0,0,0,0,0],"id":27,"left_children":[1,3,5,-1,7,-1,-1,-1,9,11,13,15,-1,17,-1,19,-1,-1,-1,-1,-1],"loss_changes":[1.5168027E0,8.361134E-1,1.3356032E0,0E0,9.115527E-1,0E0,0E0,0E0,5.235231E-1,1.1027133E0,1.1837585E0,1.1849543E0,0E0,1.098324E0,0E0,5.8864784E-1,0E0,0E0,0E0,0E0,0E0],"parents":[2147483647,0,0,1,1,2,2,4,4,8,8,9,9,10,10,11,11,13,13,15,15],"right_children":[2,4,6,-1,8,-1,-1,-1,10,12,14,16,-1,18,-1,20,-1,-1,-1,-1,-1],"split_conditions":[7.7934605E-1,-3.5582954E-1,6.3237E-1,-6.50641E-2,-1.0774187E0,8.76385E-2,-2.4111612E-2,5.123734E-2,-1.2511823E-1,-7.956437E-2,3.365128E-1,-2.1095715E-1,5.3130604E-2,-1.812732E-1,3.2485954E-2,-8.0509317E-1,-6.267714E-2,-9.7104385E-2,4.1352706E-3,-2.3923812E-2,4.7063388E-2],"split_indices":[0,11,3,0,0,0,0,0,14,11,17,15,0,4,0,0,0,0,0,0,0],"split_type":[0,0,0,0,0,0,0,0,0,0,0,0,0,0,0,0,0,0,0,0,0],"sum_hessian":[1.842733E1,1.5407541E1,3.0197897E0,2.1734776E0,1.3234063E1,1.874266E0,1.1455235E0,1.3145328E0,1.1919531E1,7.198444E0,4.7210865E0,5.407217E0,1.7912269E0,3.6459935E0,1.075093E0,2.948034E0,2.4591832E0,2.1382651E0,1.5077285E0,1.2283282E0,1.7197058E0],"tree_param":{"num_deleted":"0","num_feature":"18","num_nodes":"21","size_leaf_vector":"1"}},{"base_weights":[-8.697357E-2,2.2919159E-1,-3.1794524E-1,-2.6874557E-1,6.0266596E-1,1.1056396E-1,-6.4908063E-1,-5.333388E-2,1.8414771E-2,-5.2875555E-3,7.8877516E-2,-2.6887817E-2,3.1105557E-1,-7.6968335E-2,-2.1173384E-3,6.952104E-2,-3.3477172E-2,2.79415E-2,-3.501495E-2],"categories":[],"categories_nodes":[],"categories_segments":[],"categories_sizes":[],"default_left":[0,0,0,0,0,0,0,0,0,0,0,0,0,0,0,0,0,0,0],"id":28,"left_children":[1,3,5,7,9,11,13,-1,-1,-1,-1,-1,15,-1,-1,-1,17,-1,-1],"loss_changes":[1.4157249E0,1.7136552E0,1.6389904E0,6.0961974E-1,6.610198E-1,5.149096E-1,4.665358E-1,0E0,0E0,0E0,0E0,0E0,5.755626E-1,0E0,0E0,0E0,4.1034052E-1,0E0,0E0],"parents":[2147483647,0,0,1,1,2,2,3,3,4,4,5,5,6,6,12,12,16,16],"right_children":[2,4,6,8,10,12,14,-1,-1,-1,-1,-1,16,-1,-1,-1,18,-1,-1],"split_conditions":[-1.1118447E-1,-5.602344E-1,-4.3333146E-1,-1.1422695E-1,-4.4602358E-1,-2.579647E-1,7.724102E-1,-5.333388E-2,1.8414771E-2,-5.2875555E-3,7.8877516E-2,-2.6887817E-2,-2.8676325E-1,-7.6968335E-2,-2.1173384E-3,6.952104E-2,1.9011432E-1,2.79415E-2,-3.501495E-2],"split_indices":[13,10,10,13,3,12,17,0,0,0,0,0,11,0,0,0,7,0,0],"split_type":[0,0,0,0,0,0,0,0,0,0,0,0,0,0,0,0,0,0,0],"sum_hessian":[1.738892E1,7.343918E0,1.0045001E1,3.26768E0,4.076238E0,4.6690607E0,5.375941E0,1.9505103E0,1.3171697E0,1.0596545E0,3.0165837E0,1.4962416E0,3.1728191E0,4.3203382E0,1.0556024E0,1.0189036E0,2.1539156E0,1.1426038E0,1.0113118E0],"tree_param":{"num_deleted":"0","num_feature":"18","num_nodes":"19","size_leaf_vector":"1"}},{"base_weights":[-4.5684262E-4,1.0166078E-1,-3.9665192E-1,-1.0275057E-1,4.4486228E-1,-6.9437556E-2,2.139319E-3,2.4049608E-1,-3.474787E-1,-2.2726484E-2,7.611245E-2,4.3727517E-1,-2.5765417E-2,3.477357E-2,-5.866798E-1,5.4648686E-3,6.0101457E-2,4.241058E-2,-2.9284617E-2,-1.7128257E-2,-6.9481954E-2],"categories":[],"categories_nodes":[],"categories_segments":[],"categories_sizes":[],"default_left":[0,0,0,0,0,0,0,0,0,0,0,0,0,0,0,0,0,0,0,0,0],"id":29,"left_children":[1,3,5,7,9,-1,-1,11,13,-1,-1,15,-1,17,19,-1,-1,-1,-1,-1,-1],"loss_changes":[8.052386E-1,1.1560954E0,5.224588E-1,9.850771E-1,1.4687464E0,0E0,0E0,6.08466E-1,6.306506E-1,0E0,0E0,2.1753538E-1,0E0,5.7228535E-1,6.7913175E-2,0E0,0E0,0E0,0E0,0E0,0E0],"parents":[2147483647,0,0,1,1,2,2,3,3,4,4,7,7,8,8,11,11,13,13,14,14],"right_children":[2,4,6,8,10,-1,-1,12,14,-1,-1,16,-1,18,20,-1,-1,-1,-1,-1,-1],"split_conditions":[-9.1408335E-2,-1.564074E-1,-3.055869E-2,-2.2370113E-1,-6.6598696E-1,-6.9437556E-2,2.139319E-3,-3.3671483E-1,-1.282937E-1,-2.2726484E-2,7.611245E-2,-6.194167E-1,-2.5765417E-2,-1.3279383E-1,-1.1422695E-1,5.4648686E-3,6.0101457E-2,4.241058E-2,-2.9284617E-2,-1.7128257E-2,-6.9481954E-2],"split_indices":[13,5,13,2,10,0,0,16,15,0,0,0,0,9,13,0,0,0,0,0,0],"split_type":[0,0,0,0,0,0,0,0,0,0,0,0,0,0,0,0,0,0,0,0,0],"sum_hessian":[1.7906155E1,1.4827767E1,3.0783875E0,9.731991E0,5.095777E0,1.4118729E0,1.6665146E0,4.0578675E0,5.674123E0,1.7205763E0,3.3752007E0,2.9964237E0,1.0614438E0,2.5129547E0,3.1611683E0,1.297703E0,1.6987207E0,1.0137464E0,1.4992082E0,1.1866786E0,1.9744897E0],"tree_param":{"num_deleted":"0","num_feature":"18","num_nodes":"21","size_leaf_vector":"1"}},{"base_weights":[2.1616874E-2,1.7475946E-1,-2.9254133E-1,-7.7764764E-2,4.3877572E-1,-4.991232E-1,2.2117548E-2,1.5369862E-1,-7.214324E-2,8.015301E-2,2.1332374E-1,1.4628595E-3,-7.001125E-2,-2.6176825E-1,7.866004E-2,5.0780024E-2,-9.558687E-2,-5.380848E-2,2.0228226E-2,-4.9739875E-2,4.050425E-2],"categories":[],"categories_nodes":[],"categories_segments":[],"categories_sizes":[],"default_left":[0,0,0,0,0,0,0,0,0,0,0,0,0,0,0,0,0,0,0,0,0],"id":30,"left_children":[1,3,5,7,9,11,-1,13,-1,-1,15,-1,-1,17,-1,-1,19,-1,-1,-1,-1],"loss_changes":[9.295282E-1,8.942017E-1,7.850696E-1,1.2198101E0,3.5711455E-1,5.101323E-1,0E0,1.8622038E0,0E0,0E0,5.3475285E-1,0E0,0E0,6.926489E-1,0E0,0E0,8.954915E-1,0E0,0E0,0E0,0E0],"parents":[2147483647,0,0,1,1,2,2,3,3,4,4,5,5,7,7,10,10,13,13,16,16],"right_children":[2,4,6,8,10,12,-1,14,-1,-1,16,-1,-1,18,-1,-1,20,-1,-1,-1,-1],"split_conditions":[3.703323E-2,-2.3484093E-1,1.7403077E-1,-1.0509951E-1,-2.8676325E-1,-2.622442E-1,2.2117548E-2,-4.3333146E-1,-7.214324E-2,8.015301E-2,-1.4666152E-2,1.4628595E-3,-7.001125E-2,-1.1422695E-1,7.866004E-2,5.0780024E-2,2.099382E-1,-5.380848E-2,2.0228226E-2,-4.9739875E-2,4.050425E-2],"split_indices":[15,4,5,13,11,1,0,10,0,0,3,0,0,13,0,0,0,0,0,0,0],"split_type":[0,0,0,0,0,0,0,0,0,0,0,0,0,0,0,0,0,0,0,0,0],"sum_hessian":[1.7257858E1,1.1900464E1,5.357394E0,6.443188E0,5.4572763E0,3.8411524E0,1.5162417E0,5.29891E0,1.1442779E0,1.1123232E0,4.344953E0,1.3408929E0,2.5002594E0,3.552971E0,1.7459394E0,1.8948243E0,2.4501288E0,2.12695E0,1.4260209E0,1.362789E0,1.0873396E0],"tree_param":{"num_deleted":"0","num_feature":"18","num_nodes":"21","size_leaf_vector":"1"}},{"base_weights":[-3.3833086E-2,5.7135765E-2,-5.4790076E-2,-5.769746E-2,6.1455876E-2,1.7473057E-1,-4.8348755E-1,3.6488387E-1,-2.1071555E-1,-7.861833E-2,-1.1120919E-2,-1.227951E-1,7.1545404E-1,3.687741E-2,-5.355635E-2,1.7287968E-2,-1.977546E-2,2.7263997E-2,-5.3373095E-2,1.5845748E-2,8.543642E-2],"categories":[],"categories_nodes":[],"categories_segments":[],"categories_sizes":[],"default_left":[0,0,0,0,0,0,0,0,0,0,0,0,0,0,0,0,0,0,0,0,0],"id":31,"left_children":[1,3,-1,5,-1,7,9,11,13,-1,15,17,19,-1,-1,-1,-1,-1,-1,-1,-1],"loss_changes":[8.7229836E-1,1.0714966E0,0E0,1.5031329E0,0E0,8.103741E-1,7.529763E-1,1.2961588E0,9.391845E-1,0E0,1.404689E-1,7.645167E-1,1.9409132E-1,0E0,0E0,0E0,0E0,0E0,0E0,0E0,0E0],"parents":[2147483647,0,0,1,1,3,3,5,5,6,6,7,7,8,8,10,10,11,11,12,12],"right_children":[2,4,-1,6,-1,8,10,12,14,-1,16,18,20,-1,-1,-1,-1,-1,-1,-1,-1],"split_conditions":[4.6245012E-1,1.2657793E-1,-5.4790076E-2,-1.2511823E-1,6.1455876E-2,-1.706411E-1,-9.938461E-2,-6.6598696E-1,-5.496592E-1,-7.861833E-2,-1.4863066E-1,-9.412559E-1,-2.7912056E-1,3.687741E-2,-5.355635E-2,1.7287968E-2,-1.977546E-2,2.7263997E-2,-5.3373095E-2,1.5845748E-2,8.543642E-2],"split_indices":[16,6,0,14,0,2,17,10,10,0,11,0,6,0,0,0,0,0,0,0,0],"split_type":[0,0,0,0,0,0,0,0,0,0,0,0,0,0,0,0,0,0,0,0,0],"sum_hessian":[1.6983728E1,1.5185393E1,1.7983351E0,1.3334816E1,1.8505774E0,9.007488E0,4.3273277E0,6.0675244E0,2.9399638E0,2.2324247E0,2.094903E0,2.8092701E0,3.2582543E0,1.0074944E0,1.9324695E0,1.0920023E0,1.0029007E0,1.6031401E0,1.2061299E0,1.0776905E0,2.180564E0],"tree_param":{"num_deleted":"0","num_feature":"18","num_nodes":"21","size_leaf_vector":"1"}},{"base_weights":[5.569157E-3,-6.264878E-1,1.7443946E-1,-6.1934385E-3,-8.29243E-2,-3.9985156E-1,3.2144272E-1,1.2231606E-2,-7.465321E-2,4.9616393E-1,-3.35958E-1,6.9893754E-1,2.7427712E-1,-5.4148544E-2,8.5421075E-4,8.878263E-2,7.2300406E-3,-4.4349823E-2,4.944727E-1,4.0410824E-2,7.8616016E-2,5.4215085E-2,-5.2339166E-2],"categories":[],"categories_nodes":[],"categories_segments":[],"categories_sizes":[],"default_left":[0,0,0,0,0,0,0,0,0,0,0,0,0,0,0,0,0,0,0,0,0,0,0],"id":32,"left_children":[1,3,5,-1,-1,7,9,-1,-1,11,13,15,17,-1,-1,-1,-1,-1,19,21,-1,-1,-1],"loss_changes":[2.037913E0,4.096619E-1,1.3983845E0,0E0,0E0,7.269301E-1,1.6059589E0,0E0,0E0,2.7186465E-1,2.331309E-1,4.965701E-1,1.2569945E0,0E0,0E0,0E0,0E0,0E0,6.9628847E-1,1.1901925E0,0E0,0E0,0E0],"parents":[2147483647,0,0,1,1,2,2,5,5,6,6,9,9,10,10,11,11,12,12,18,18,19,19],"right_children":[2,4,6,-1,-1,8,10,-1,-1,12,14,16,18,-1,-1,-1,-1,-1,20,22,-1,-1,-1],"split_conditions":[-3.419764E-1,-6.617023E-1,-4.4602358E-1,-6.1934385E-3,-8.29243E-2,-2.3159878E-1,5.1087177E-1,1.2231606E-2,-7.465321E-2,-1.1118447E-1,2.624259E-1,3.703323E-2,-2.3484093E-1,-5.4148544E-2,8.5421075E-4,8.878263E-2,7.2300406E-3,-4.4349823E-2,-1.4297436E-1,-5.822814E-1,7.8616016E-2,5.4215085E-2,-5.2339166E-2],"split_indices":[4,3,3,0,0,9,17,0,0,13,9,15,4,0,0,0,0,0,17,0,0,0,0],"split_type":[0,0,0,0,0,0,0,0,0,0,0,0,0,0,0,0,0,0,0,0,0,0,0],"sum_hessian":[1.7069212E1,3.0275726E0,1.4041638E1,1.1449704E0,1.8826022E0,2.511206E0,1.1530433E1,1.2602324E0,1.2509733E0,9.303145E0,2.227287E0,3.7375622E0,5.5655837E0,1.036885E0,1.190402E0,2.5516124E0,1.1859497E0,1.0684918E0,4.497092E0,2.2042842E0,2.2928073E0,1.1866561E0,1.0176281E0],"tree_param":{"num_deleted":"0","num_feature":"18","num_nodes":"23","size_leaf_vector":"1"}},{"base_weights":[-6.345461E-3,1.4398558E-1,-3.2926488E-1,-3.6133373E-1,3.0379465E-1,-1.1697888E-2,-5.1796186E-1,-5.1033825E-2,-3.7266042E-3,4.8532915E-1,-8.928485E-2,-2.5944883E-2,2.372427E-2,-6.9583125E-2,-5.3687305E-3,6.7125463E-1,-2.396593E-2,-3.8658362E-2,3.866952E-2,7.9788975E-2,2.5366506E-2],"categories":[],"categories_nodes":[],"categories_segments":[],"categories_sizes":[],"default_left":[0,0,0,0,0,0,0,0,0,0,0,0,0,0,0,0,0,0,0,0,0],"id":33,"left_children":[1,3,5,7,9,11,13,-1,-1,15,17,-1,-1,-1,-1,19,-1,-1,-1,-1,-1],"loss_changes":[8.6482066E-1,1.093786E0,3.326931E-1,1.4440951E-1,7.426913E-1,2.54604E-1,2.53565E-1,0E0,0E0,1.0855384E0,7.071629E-1,0E0,0E0,0E0,0E0,1.0023308E-1,0E0,0E0,0E0,0E0,0E0],"parents":[2147483647,0,0,1,1,2,2,3,3,4,4,5,5,6,6,9,9,10,10,15,15],"right_children":[2,4,6,8,10,12,14,-1,-1,16,18,-1,-1,-1,-1,20,-1,-1,-1,-1,-1],"split_conditions":[-1.2205128E-2,-3.2162648E-1,7.428056E-2,-1.1422695E-1,-1.0509951E-1,-7.0326515E-2,4.178497E-1,-5.1033825E-2,-3.7266042E-3,6.4816035E-2,-5.794103E-2,-2.5944883E-2,2.372427E-2,-6.9583125E-2,-5.3687305E-3,-1.2250551E-1,-2.396593E-2,-3.8658362E-2,3.866952E-2,7.9788975E-2,2.5366506E-2],"split_indices":[17,5,10,13,13,16,1,0,0,9,13,0,0,0,0,3,0,0,0,0,0],"split_type":[0,0,0,0,0,0,0,0,0,0,0,0,0,0,0,0,0,0,0,0,0],"sum_hessian":[1.5838284E1,1.1185246E1,4.6530366E0,2.3844707E0,8.800776E0,2.1301317E0,2.522905E0,1.2396827E0,1.1447881E0,5.859855E0,2.9409204E0,1.0464603E0,1.0836713E0,1.4634787E0,1.0594264E0,4.722797E0,1.1370586E0,1.9258459E0,1.0150745E0,2.9250612E0,1.7977355E0],"tree_param":{"num_deleted":"0","num_feature":"18","num_nodes":"21","size_leaf_vector":"1"}},{"base_weights":[-7.638701E-2,1.06333576E-1,-3.8242587E-1,-9.942523E-2,6.161819E-1,-6.9137955E-1,4.1880053E-2,1.15816996E-1,-4.948553E-1,7.293455E-2,1.92665E-2,-8.456784E-2,-2.6434435E-2,-3.1427127E-1,4.8673907E-1,-6.488537E-2,-7.965056E-3,3.711626E-3,-5.0070662E-2,6.891509E-2,1.4548871E-2],"categories":[],"categories_nodes":[],"categories_segments":[],"categories_sizes":[],"default_left":[0,0,0,0,0,0,0,0,0,0,0,0,0,0,0,0,0,0,0,0,0],"id":34,"left_children":[1,3,5,7,9,11,-1,13,15,-1,-1,-1,-1,17,19,-1,-1,-1,-1,-1,-1],"loss_changes":[9.7601074E-1,1.242072E0,1.8913274E0,8.131645E-1,2.124989E-2,1.0901618E-1,0E0,1.1996049E0,1.6058648E-1,0E0,0E0,0E0,0E0,2.5742078E-1,1.7016017E-1,0E0,0E0,0E0,0E0,0E0,0E0],"parents":[2147483647,0,0,1,1,2,2,3,3,4,4,5,5,7,7,8,8,13,13,14,14],"right_children":[2,4,6,8,10,12,-1,14,16,-1,-1,-1,-1,18,20,-1,-1,-1,-1,-1,-1],"split_conditions":[-1.0357826E-1,-1.564074E-1,1.2657793E-1,-1.3279383E-1,3.703323E-2,-1.4297436E-1,4.1880053E-2,-5.822814E-1,-1.4863066E-1,7.293455E-2,1.92665E-2,-8.456784E-2,-2.6434435E-2,-8.7749195E-1,-2.1095715E-1,-6.488537E-2,-7.965056E-3,3.711626E-3,-5.0070662E-2,6.891509E-2,1.4548871E-2],"split_indices":[13,5,6,9,15,17,0,0,11,0,0,0,0,10,15,0,0,0,0,0,0],"split_type":[0,0,0,0,0,0,0,0,0,0,0,0,0,0,0,0,0,0,0,0,0],"sum_hessian":[1.5726623E1,1.025589E1,5.470733E0,7.880541E0,2.3753486E0,4.0472198E0,1.4235137E0,5.560783E0,2.319758E0,1.3046342E0,1.0707144E0,2.2528565E0,1.7943631E0,2.6457434E0,2.9150395E0,1.2816616E0,1.0380964E0,1.1947783E0,1.4509652E0,1.1898155E0,1.7252239E0],"tree_param":{"num_deleted":"0","num_feature":"18","num_nodes":"21","size_leaf_vector":"1"}},{"base_weights":[3.2612532E-2,1.4412658E-1,-4.6430845E-2,1.5078816E-2,6.321379E-2,4.1070783E-1,-1.3876186E-1,-1.2807514E-2,6.97194E-2,-2.526734E-1,3.3928074E-2,1.528672E-2,-4.7835642E-1,3.314262E-1,-3.8442843E-2,-7.3206924E-2,3.374254E-3,-9.756635E-3,6.1488163E-2],"categories":[],"categories_nodes":[],"categories_segments":[],"categories_sizes":[],"default_left":[0,0,0,0,0,0,0,0,0,0,0,0,0,0,0,0,0,0,0],"id":35,"left_children":[1,3,-1,5,-1,7,9,-1,-1,11,-1,13,15,17,-1,-1,-1,-1,-1],"loss_changes":[9.817043E-1,8.8762087E-1,0E0,8.050643E-1,0E0,6.5943915E-1,6.0833746E-1,0E0,0E0,5.1066947E-1,0E0,7.307261E-1,6.1575556E-1,4.4946602E-1,0E0,0E0,0E0,0E0,0E0],"parents":[2147483647,0,0,1,1,3,3,5,5,6,6,9,9,11,11,12,12,13,13],"right_children":[2,4,-1,6,-1,8,10,-1,-1,12,-1,14,16,18,-1,-1,-1,-1,-1],"split_conditions":[5.1087177E-1,4.5498955E-1,-4.6430845E-2,-8.422285E-1,6.321379E-2,-2.7912056E-1,-1.2205128E-2,-1.2807514E-2,6.97194E-2,-2.3159878E-1,3.3928074E-2,-1.1118447E-1,-1.0002767E-1,-5.602344E-1,-3.8442843E-2,-7.3206924E-2,3.374254E-3,-9.756635E-3,6.1488163E-2],"split_indices":[17,10,0,0,0,6,17,0,0,9,0,13,14,10,0,0,0,0,0],"split_type":[0,0,0,0,0,0,0,0,0,0,0,0,0,0,0,0,0,0,0],"sum_hessian":[1.5508295E1,1.3245772E1,2.2625232E0,1.1290939E1,1.9548322E0,2.6937587E0,8.597181E0,1.1270695E0,1.5666893E0,7.32352E0,1.2736608E0,3.7743676E0,3.5491529E0,2.2029064E0,1.571461E0,2.0860834E0,1.4630694E0,1.1373671E0,1.0655394E0],"tree_param":{"num_deleted":"0","num_feature":"18","num_nodes":"19","size_leaf_vector":"1"}},{"base_weights":[-3.8701896E-2,1.0320538E-1,-6.121272E-2,-2.3290142E-1,3.0934206E-1,4.0878456E-2,-5.064816E-1,-2.3695467E-2,4.2915493E-1,-4.5848666E-3,-6.848368E-2,5.4929686E-1,-1.1255824E-2,7.494115E-2,1.943622E-1,-4.0403266E-2,7.189215E-2],"categories":[],"categories_nodes":[],"categories_segments":[],"categories_sizes":[],"default_left":[0,0,0,0,0,0,0,0,0,0,0,0,0,0,0,0,0],"id":36,"left_children":[1,3,-1,5,7,-1,9,-1,11,-1,-1,13,-1,-1,15,-1,-1],"loss_changes":[1.3451583E0,1.0063229E0,0E0,1.2071267E0,6.7689234E-1,0E0,3.3342433E-1,0E0,5.54047E-1,0E0,0E0,3.0609334E-1,0E0,0E0,1.4340603E0,0E0,0E0],"parents":[2147483647,0,0,1,1,3,3,4,4,6,6,8,8,11,11,14,14],"right_children":[2,4,-1,6,8,-1,10,-1,12,-1,-1,14,-1,-1,16,-1,-1],"split_conditions":[-9.1408335E-2,-6.194167E-1,-6.121272E-2,-1.0774187E0,-6.871374E-1,4.0878456E-2,-8.034652E-1,-2.3695467E-2,1.9011432E-1,-4.5848666E-3,-6.848368E-2,-1.706411E-1,-1.1255824E-2,7.494115E-2,-1.865641E-1,-4.0403266E-2,7.189215E-2],"split_indices":[13,0,0,0,10,0,10,0,7,0,0,2,0,0,17,0,0],"split_type":[0,0,0,0,0,0,0,0,0,0,0,0,0,0,0,0,0],"sum_hessian":[1.4754368E1,1.2484749E1,2.2696187E0,4.696783E0,7.7879663E0,1.2561835E0,3.4405994E0,1.2249589E0,6.5630074E0,1.3112179E0,2.1293814E0,5.3602123E0,1.2027948E0,2.716963E0,2.6432493E0,1.3420563E0,1.301193E0],"tree_param":{"num_deleted":"0","num_feature":"18","num_nodes":"17","size_leaf_vector":"1"}},{"base_weights":[4.1829333E-2,-1.398861E-1,7.478897E-2,1.1709925E-1,-4.09362E-1,-2.6392072E-1,4.9660578E-1,1.0489727E-1,-7.324221E-2,-4.1958146E-2,5.780469E-4,7.755884E-2,1.4137195E-2,3.0581316E-2,-1.739744E-2],"categories":[],"categories_nodes":[],"categories_segments":[],"categories_sizes":[],"default_left":[0,0,0,0,0,0,0,0,0,0,0,0,0,0,0],"id":37,"left_children":[1,3,-1,5,7,9,11,13,-1,-1,-1,-1,-1,-1,-1],"loss_changes":[2.071972E0,9.5080614E-1,0E0,1.2084794E0,1.1710974E0,1.859313E-1,2.9469323E-1,2.4460077E-1,0E0,0E0,0E0,0E0,0E0,0E0,0E0],"parents":[2147483647,0,0,1,1,3,3,4,4,5,5,6,6,7,7],"right_children":[2,4,-1,6,8,10,12,14,-1,-1,-1,-1,-1,-1,-1],"split_conditions":[8.164813E-1,-5.179334E-1,7.478897E-2,-3.381842E-1,-1.706411E-1,-3.3671483E-1,-2.622442E-1,-2.8343716E-1,-7.324221E-2,-4.1958146E-2,5.780469E-4,7.755884E-2,1.4137195E-2,3.0581316E-2,-1.739744E-2],"split_indices":[0,10,0,3,2,16,1,16,0,0,0,0,0,0,0],"split_type":[0,0,0,0,0,0,0,0,0,0,0,0,0,0,0],"sum_hessian":[1.4333756E1,1.203758E1,2.2961771E0,6.451024E0,5.5865555E0,3.3710747E0,3.0799496E0,2.415991E0,3.1705642E0,1.7850744E0,1.5860002E0,1.062331E0,2.0176187E0,1.3481172E0,1.0678738E0],"tree_param":{"num_deleted":"0","num_feature":"18","num_nodes":"15","size_leaf_vector":"1"}},{"base_weights":[-2.5198834E-2,1.2937923E-1,-4.267576E-1,-4.0518737E-1,2.7041125E-1,-7.666504E-2,1.0634356E-2,-6.453804E-2,2.680122E-3,8.175998E-2,7.747174E-2,3.059099E-1,-3.5721564E-1,-2.2413181E-2,4.6470785E-1,3.1629999E-3,-6.491675E-2,6.317494E-1,-7.1458593E-3,2.4191849E-2,7.752923E-2],"categories":[],"categories_nodes":[],"categories_segments":[],"categories_sizes":[],"default_left":[0,0,0,0,0,0,0,0,0,0,0,0,0,0,0,0,0,0,0,0,0],"id":38,"left_children":[1,3,5,7,9,-1,-1,-1,-1,11,-1,13,15,-1,17,-1,-1,19,-1,-1,-1],"loss_changes":[1.0843621E0,1.0699627E0,9.5870554E-1,3.3475333E-1,9.5267123E-1,0E0,0E0,0E0,0E0,9.840178E-1,0E0,6.448335E-1,4.1404334E-1,0E0,5.1697505E-1,0E0,0E0,4.28977E-2,0E0,0E0,0E0],"parents":[2147483647,0,0,1,1,2,2,3,3,4,4,9,9,11,11,12,12,14,14,17,17],"right_children":[2,4,6,8,10,-1,-1,-1,-1,12,-1,14,16,-1,18,-1,-1,20,-1,-1,-1],"split_conditions":[1.9011432E-1,-3.5582954E-1,-5.8210082E-2,-3.9554414E-1,2.099382E-1,-7.666504E-2,1.0634356E-2,-6.453804E-2,2.680122E-3,-1.06620744E-1,7.747174E-2,-9.1979295E-1,-3.1733334E-1,-2.2413181E-2,-1.6141474E-1,3.1629999E-3,-6.491675E-2,-2.1769695E-1,-7.1458593E-3,2.4191849E-2,7.752923E-2],"split_indices":[7,11,14,4,0,0,0,0,0,13,0,10,17,0,0,0,0,11,0,0,0],"split_type":[0,0,0,0,0,0,0,0,0,0,0,0,0,0,0,0,0,0,0,0,0],"sum_hessian":[1.5579867E1,1.1738859E1,3.8410082E0,2.0595067E0,9.679353E0,2.0780177E0,1.7629905E0,1.0061145E0,1.0533922E0,7.8899846E0,1.7893685E0,5.4236736E0,2.4663107E0,1.1554712E0,4.2682023E0,1.4400257E0,1.026285E0,3.1184E0,1.1498022E0,1.5619166E0,1.5564836E0],"tree_param":{"num_deleted":"0","num_feature":"18","num_nodes":"21","size_leaf_vector":"1"}},{"base_weights":[-4.6150696E-2,-4.5759484E-1,2.1791308E-1,-5.5502915E-1,-2.294256E-3,4.463742E-1,-3.637194E-1,-6.631022E-1,-1.1708846E-2,1.1555172E-1,7.732021E-2,-5.3000446E-2,-3.1973328E-3,-1.1661461E-2,-8.3128884E-2,4.5309987E-2,-2.5190866E-1,4.424166E-4,-3.8220912E-2],"categories":[],"categories_nodes":[],"categories_segments":[],"categories_sizes":[],"default_left":[0,0,0,0,0,0,0,0,0,0,0,0,0,0,0,0,0,0,0],"id":39,"left_children":[1,3,5,7,-1,9,11,13,-1,15,-1,-1,-1,-1,-1,-1,17,-1,-1],"loss_changes":[1.7890124E0,2.583338E-1,1.5107952E0,1.677841E-1,0E0,7.4696815E-1,1.7132291E-1,2.656201E-1,0E0,7.367565E-1,0E0,0E0,0E0,0E0,0E0,0E0,1.0342926E-1,0E0,0E0],"parents":[2147483647,0,0,1,1,2,2,3,3,5,5,6,6,7,7,9,9,16,16],"right_children":[2,4,6,8,-1,10,12,14,-1,16,-1,-1,-1,-1,-1,-1,18,-1,-1],"split_conditions":[-3.381842E-1,-3.2757893E-1,5.1087177E-1,-5.822814E-1,-2.294256E-3,-5.2622445E-2,7.271604E-1,-3.469318E-1,-1.1708846E-2,-5.822814E-1,7.732021E-2,-5.3000446E-2,-3.1973328E-3,-1.1661461E-2,-8.3128884E-2,4.5309987E-2,-2.3484093E-1,4.424166E-4,-3.8220912E-2],"split_indices":[3,10,17,0,0,10,7,7,0,0,0,0,0,0,0,0,4,0,0],"split_type":[0,0,0,0,0,0,0,0,0,0,0,0,0,0,0,0,0,0,0],"sum_hessian":[1.4548417E1,5.4006457E0,9.147772E0,4.185458E0,1.2151875E0,6.7349E0,2.4128718E0,2.9446526E0,1.2408055E0,4.019663E0,2.7152371E0,1.2091664E0,1.2037054E0,1.0914795E0,1.853173E0,1.9736317E0,2.046031E0,1.0151094E0,1.0309216E0],"tree_param":{"num_deleted":"0","num_feature":"18","num_nodes":"19","size_leaf_vector":"1"}},{"base_weights":[2.088116E-2,-4.6530136E-1,1.3273795E-1,-8.116213E-3,-6.338857E-2,2.8899553E-1,-1.8446659E-1,-2.3830717E-2,4.0272576E-1,-4.650549E-1,2.7498325E-2,5.148305E-1,-5.762072E-3,-4.239026E-3,-7.710486E-2,1.8890817E-1,7.088464E-1,-1.2187335E-2,3.7766367E-2,8.688997E-2,2.7433207E-2],"categories":[],"categories_nodes":[],"categories_segments":[],"categories_sizes":[],"default_left":[0,0,0,0,0,0,0,0,0,0,0,0,0,0,0,0,0,0,0,0,0],"id":40,"left_children":[1,3,5,-1,-1,7,9,-1,11,13,-1,15,-1,-1,-1,17,19,-1,-1,-1,-1],"loss_changes":[9.247615E-1,1.55141E-1,7.3131216E-1,0E0,0E0,6.689298E-1,7.8855944E-1,0E0,4.544288E-1,4.2687643E-1,0E0,2.9099727E-1,0E0,0E0,0E0,2.7309123E-1,2.9299736E-2,0E0,0E0,0E0,0E0],"parents":[2147483647,0,0,1,1,2,2,5,5,6,6,8,8,9,9,11,11,15,15,16,16],"right_children":[2,4,6,-1,-1,8,10,-1,12,14,-1,16,-1,-1,-1,18,20,-1,-1,-1,-1],"split_conditions":[-3.2162648E-1,-4.811933E-1,1.9011432E-1,-8.116213E-3,-6.338857E-2,-3.9554414E-1,2.624259E-1,-2.3830717E-2,7.4857794E-2,-7.956437E-2,2.7498325E-2,-2.579647E-1,-5.762072E-3,-4.239026E-3,-7.710486E-2,-2.622442E-1,-5.179334E-1,-1.2187335E-2,3.7766367E-2,8.688997E-2,2.7433207E-2],"split_indices":[5,7,7,0,0,4,9,0,8,11,0,12,0,0,0,1,10,0,0,0,0],"split_type":[0,0,0,0,0,0,0,0,0,0,0,0,0,0,0,0,0,0,0,0,0],"sum_hessian":[1.4868954E1,2.1900716E0,1.2678882E1,1.1198331E0,1.0702384E0,8.554028E0,4.1248546E0,1.3232931E0,7.2307343E0,2.5533261E0,1.5715286E0,5.7195415E0,1.5111926E0,1.550364E0,1.0029621E0,2.8707366E0,2.848805E0,1.2186273E0,1.6521093E0,1.351337E0,1.497468E0],"tree_param":{"num_deleted":"0","num_feature":"18","num_nodes":"21","size_leaf_vector":"1"}},{"base_weights":[-3.1839266E-2,-4.6374005E-1,9.001852E-2,-1.550285E-3,-6.254643E-2,1.9462508E-1,-6.0104053E-2,-3.0117482E-2,3.147621E-1,-3.2185826E-3,5.863591E-1,6.907114E-2,-3.5456732E-1,7.242411E-2,1.5747806E-2,-6.8850644E-2,-3.566022E-2,3.5259563E-2,-3.6278497E-2],"categories":[],"categories_nodes":[],"categories_segments":[],"categories_sizes":[],"default_left":[0,0,0,0,0,0,0,0,0,0,0,0,0,0,0,0,0,0,0],"id":41,"left_children":[1,3,5,-1,-1,7,-1,-1,9,11,13,-1,15,-1,-1,-1,17,-1,-1],"loss_changes":[8.935721E-1,2.6027203E-1,1.0900552E0,0E0,0E0,8.361645E-1,0E0,0E0,9.093734E-1,1.6675751E0,2.2140467E-1,0E0,4.5835876E-1,0E0,0E0,0E0,5.564556E-1,0E0,0E0],"parents":[2147483647,0,0,1,1,2,2,5,5,8,8,9,9,10,10,12,12,16,16],"right_children":[2,4,6,-1,-1,8,-1,-1,10,12,14,-1,16,-1,-1,-1,18,-1,-1],"split_conditions":[-3.419764E-1,-6.617023E-1,7.8211606E-1,-1.550285E-3,-6.254643E-2,-4.4602358E-1,-6.0104053E-2,-3.0117482E-2,-1.3279383E-1,-2.1095715E-1,1.9011432E-1,6.907114E-2,-2.4967021E-1,7.242411E-2,1.5747806E-2,-6.8850644E-2,7.377545E-2,3.5259563E-2,-3.6278497E-2],"split_indices":[4,3,16,0,0,3,0,0,9,15,7,0,8,0,0,0,0,0,0],"split_type":[0,0,0,0,0,0,0,0,0,0,0,0,0,0,0,0,0,0,0],"sum_hessian":[1.5185053E1,2.7241738E0,1.2460879E1,1.0128379E0,1.7113359E0,1.1446564E1,1.0143154E0,1.9387017E0,9.507862E0,4.8351307E0,4.672731E0,1.3005664E0,3.5345643E0,3.0148149E0,1.6579163E0,1.1604545E0,2.37411E0,1.0500134E0,1.3240964E0],"tree_param":{"num_deleted":"0","num_feature":"18","num_nodes":"19","size_leaf_vector":"1"}},{"base_weights":[-1.574876E-2,-2.4614769E-1,1.3900506E-1,-6.0654588E-2,3.4967868E-3,6.449668E-2,-8.86154E-2,3.5475764E-2,-3.8008016E-2,-4.5283154E-1,3.2026464E-1,-6.523824E-2,7.7156834E-3,6.5860115E-2,-2.0576263E-2],"categories":[],"categories_nodes":[],"categories_segments":[],"categories_sizes":[],"default_left":[0,0,0,0,0,0,0,0,0,0,0,0,0,0,0],"id":42,"left_children":[1,3,5,-1,7,-1,9,-1,-1,11,13,-1,-1,-1,-1],"loss_changes":[5.920736E-1,6.001993E-1,1.2086555E0,0E0,7.979243E-1,0E0,1.3029315E0,0E0,0E0,5.2905893E-1,8.9169157E-1,0E0,0E0,0E0,0E0],"parents":[2147483647,0,0,1,1,2,2,4,4,6,6,9,9,10,10],"right_children":[2,4,6,-1,8,-1,10,-1,-1,12,14,-1,-1,-1,-1],"split_conditions":[-3.381842E-1,-3.2162648E-1,-1.4666152E-2,-6.0654588E-2,-3.1733334E-1,6.449668E-2,-7.0326515E-2,3.5475764E-2,-3.8008016E-2,3.2134408E-1,-1.0498077E-2,-6.523824E-2,7.7156834E-3,6.5860115E-2,-2.0576263E-2],"split_indices":[3,5,3,0,17,0,16,0,0,0,11,0,0,0,0],"split_type":[0,0,0,0,0,0,0,0,0,0,0,0,0,0,0],"sum_hessian":[1.4645942E1,5.6474257E0,8.998516E0,1.7260224E0,3.9214032E0,2.2232003E0,6.7753153E0,2.086146E0,1.835257E0,3.526521E0,3.2487946E0,2.3941429E0,1.1323781E0,1.8237467E0,1.425048E0],"tree_param":{"num_deleted":"0","num_feature":"18","num_nodes":"15","size_leaf_vector":"1"}},{"base_weights":[2.9768655E-3,1.0405877E-1,-4.352142E-2,-2.6745062E-2,5.7108343E-2,8.301797E-2,-4.222831E-2,-2.4909846E-2,1.6902576E-1,3.6891752E-1,-9.187479E-2,6.933562E-2,-1.0272357E-2,3.2090764E-2,-3.596662E-2],"categories":[],"categories_nodes":[],"categories_segments":[],"categories_sizes":[],"default_left":[0,0,0,0,0,0,0,0,0,0,0,0,0,0,0],"id":43,"left_children":[1,3,-1,5,-1,7,-1,-1,9,11,13,-1,-1,-1,-1],"loss_changes":[6.77653E-1,7.732481E-1,0E0,4.973555E-1,0E0,3.040674E-1,0E0,0E0,4.4486207E-1,7.8446794E-1,5.8179194E-1,0E0,0E0,0E0,0E0],"parents":[2147483647,0,0,1,1,3,3,5,5,8,8,9,9,10,10],"right_children":[2,4,-1,6,-1,8,-1,-1,10,12,14,-1,-1,-1,-1],"split_conditions":[5.1087177E-1,8.164813E-1,-4.352142E-2,1.1658156E-1,5.7108343E-2,-3.2162648E-1,-4.222831E-2,-2.4909846E-2,-1.2250551E-1,-1.865641E-1,-5.822814E-1,6.933562E-2,-1.0272357E-2,3.2090764E-2,-3.596662E-2],"split_indices":[17,0,0,10,0,5,0,0,3,17,0,0,0,0,0],"split_type":[0,0,0,0,0,0,0,0,0,0,0,0,0,0,0],"sum_hessian":[1.3276806E1,1.1407784E1,1.869021E0,9.648246E0,1.7595387E0,8.170908E0,1.4773383E0,1.2906957E0,6.8802123E0,3.6611598E0,3.2190526E0,1.8905623E0,1.7705973E0,1.1885828E0,2.0304697E0],"tree_param":{"num_deleted":"0","num_feature":"18","num_nodes":"15","size_leaf_vector":"1"}},{"base_weights":[-1.4680839E-1,1.9726415E-1,-2.4786314E-1,-1.455403E-2,3.7370536E-2,-4.995414E-1,5.0581742E-2,-2.7303374E-3,-7.02757E-2,3.943638E-1,-2.672172E-1,6.3869625E-2,-3.4102711E-3,-5.9016135E-2,1.6931798E-2],"categories":[],"categories_nodes":[],"categories_segments":[],"categories_sizes":[],"default_left":[0,0,0,0,0,0,0,0,0,0,0,0,0,0,0],"id":44,"left_children":[1,3,5,-1,-1,7,9,-1,-1,11,13,-1,-1,-1,-1],"loss_changes":[5.432646E-1,2.8330737E-1,8.840622E-1,0E0,0E0,5.848894E-1,7.760685E-1,0E0,0E0,3.727767E-1,6.33669E-1,0E0,0E0,0E0,0E0],"parents":[2147483647,0,0,1,1,2,2,5,5,6,6,9,9,10,10],"right_children":[2,4,6,-1,-1,8,10,-1,-1,12,14,-1,-1,-1,-1],"split_conditions":[-8.7749195E-1,-4.2920864E-1,-1.4863066E-1,-1.455403E-2,3.7370536E-2,-2.1095715E-1,-1.2511823E-1,-2.7303374E-3,-7.02757E-2,-1.0814199E-1,3.365128E-1,6.3869625E-2,-3.4102711E-3,-5.9016135E-2,1.6931798E-2],"split_indices":[10,9,11,0,0,15,14,0,0,13,17,0,0,0,0],"split_type":[0,0,0,0,0,0,0,0,0,0,0,0,0,0,0],"sum_hessian":[1.32182255E1,2.7847211E0,1.0433505E1,1.0057676E0,1.7789534E0,5.294687E0,5.138818E0,1.9342291E0,3.3604577E0,2.352767E0,2.786051E0,1.1858699E0,1.166897E0,1.3990941E0,1.3869568E0],"tree_param":{"num_deleted":"0","num_feature":"18","num_nodes":"15","size_leaf_vector":"1"}},{"base_weights":[-9.490599E-2,-4.212911E-2,-1.6761256E-2,1.1586433E-1,-3.2412928E-1,3.668555E-1,-1.5226442E-1,1.9514327E-3,-5.361244E-2,-6.0076218E-2,7.578533E-2,-3.5523012E-1,2.4758812E-2,3.9160013E-2,-4.3386757E-2,1.5771165E-2,-6.1345883E-2],"categories":[],"categories_nodes":[],"categories_segments":[],"categories_sizes":[],"default_left":[0,0,0,0,0,0,0,0,0,0,0,0,0,0,0,0,0],"id":45,"left_children":[1,-1,3,5,7,9,11,-1,-1,13,-1,15,-1,-1,-1,-1,-1],"loss_changes":[3.6477226E-1,0E0,5.595043E-1,7.073797E-1,3.1080845E-1,9.292001E-1,5.25177E-1,0E0,0E0,7.5357574E-1,0E0,6.24488E-1,0E0,0E0,0E0,0E0,0E0],"parents":[2147483647,0,0,2,2,3,3,4,4,5,5,6,6,9,9,11,11],"right_children":[2,-1,4,6,8,10,12,-1,-1,14,-1,16,-1,-1,-1,-1,-1],"split_conditions":[-3.5582954E-1,-4.212911E-2,-1.0498077E-2,-5.179334E-1,1.9011432E-1,-6.0703826E-1,7.7934605E-1,1.9514327E-3,-5.361244E-2,-4.811933E-1,7.578533E-2,-2.3484093E-1,2.4758812E-2,3.9160013E-2,-4.3386757E-2,1.5771165E-2,-6.1345883E-2],"split_indices":[11,0,11,10,7,0,0,0,0,7,0,4,0,0,0,0,0],"split_type":[0,0,0,0,0,0,0,0,0,0,0,0,0,0,0,0,0],"sum_hessian":[1.3578694E1,1.7747937E0,1.1803901E1,8.681138E0,3.1227627E0,4.293682E0,4.387456E0,1.537854E0,1.5849086E0,2.4571087E0,1.8365732E0,2.9842458E0,1.4032102E0,1.091063E0,1.3660457E0,1.1296269E0,1.8546188E0],"tree_param":{"num_deleted":"0","num_feature":"18","num_nodes":"17","size_leaf_vector":"1"}},{"base_weights":[1.3129629E-1,2.4225225E-1,-3.246312E-1,-1.0025195E-1,5.178891E-1,-4.9186673E-2,-1.0771244E-3,1.9166009E-1,-5.816679E-2,2.6617572E-1,7.130392E-2,-1.6804351E-1,6.3632414E-2,6.3548855E-2,-2.5866348E-2,-3.2817937E-2,9.414717E-3],"categories":[],"categories_nodes":[],"categories_segments":[],"categories_sizes":[],"default_left":[0,0,0,0,0,0,0,0,0,0,0,0,0,0,0,0,0],"id":46,"left_children":[1,3,5,7,9,-1,-1,11,-1,13,-1,15,-1,-1,-1,-1,-1],"loss_changes":[8.1965184E-1,1.218181E0,1.6761929E-1,1.003354E0,1.5441048E-1,0E0,0E0,8.591579E-1,0E0,1.0668011E0,0E0,1.7326984E-1,0E0,0E0,0E0,0E0,0E0],"parents":[2147483647,0,0,1,1,2,2,3,3,4,4,7,7,9,9,11,11],"right_children":[2,4,6,8,10,-1,-1,12,-1,14,-1,16,-1,-1,-1,-1,-1],"split_conditions":[5.1087177E-1,-2.3034486E-1,7.271604E-1,-1.0814199E-1,-5.2622445E-2,-4.9186673E-2,-1.0771244E-3,-1.1118447E-1,-5.816679E-2,-5.822814E-1,7.130392E-2,-7.3082256E-1,6.3632414E-2,6.3548855E-2,-2.5866348E-2,-3.2817937E-2,9.414717E-3],"split_indices":[17,3,7,13,10,0,0,13,0,0,0,0,0,0,0,0,0],"split_type":[0,0,0,0,0,0,0,0,0,0,0,0,0,0,0,0,0],"sum_hessian":[1.3647962E1,1.13535795E1,2.2943823E0,5.346433E0,6.0071464E0,1.1268201E0,1.1675622E0,3.7029748E0,1.6434584E0,3.6557498E0,2.3513966E0,2.3909466E0,1.3120282E0,2.0220625E0,1.6336873E0,1.3281081E0,1.0628386E0],"tree_param":{"num_deleted":"0","num_feature":"18","num_nodes":"17","size_leaf_vector":"1"}},{"base_weights":[-5.743455E-2,9.616664E-2,-3.2278785E-1,-1.2466651E-1,3.501148E-1,-7.7097066E-2,3.877552E-2,4.5597523E-2,-3.3367583E-1,6.460195E-2,-6.0302443E-3,3.306171E-2,-4.0947583E-2,-8.207935E-2,-6.0200464E-2,-3.7169307E-2,3.374719E-2],"categories":[],"categories_nodes":[],"categories_segments":[],"categories_sizes":[],"default_left":[0,0,0,0,0,0,0,0,0,0,0,0,0,0,0,0,0],"id":47,"left_children":[1,3,5,7,9,-1,11,-1,13,-1,-1,-1,-1,15,-1,-1,-1],"loss_changes":[6.162898E-1,5.968762E-1,9.201683E-1,8.819959E-1,6.280864E-1,0E0,6.577282E-1,0E0,2.8811175E-1,0E0,0E0,0E0,0E0,5.796443E-1,0E0,0E0,0E0],"parents":[2147483647,0,0,1,1,2,2,3,3,4,4,6,6,8,8,13,13],"right_children":[2,4,6,8,10,-1,12,-1,14,-1,-1,-1,-1,16,-1,-1,-1],"split_conditions":[-1.0357826E-1,-4.3374023E-1,-1.17581055E-1,-1.0774187E0,-1.2250551E-1,-7.7097066E-2,1.289458E-1,4.5597523E-2,-7.627132E-2,6.460195E-2,-6.0302443E-3,3.306171E-2,-4.0947583E-2,-2.3484093E-1,-6.0200464E-2,-3.7169307E-2,3.374719E-2],"split_indices":[13,0,2,0,3,0,8,0,6,0,0,0,0,4,0,0,0],"split_type":[0,0,0,0,0,0,0,0,0,0,0,0,0,0,0,0,0],"sum_hessian":[1.3358898E1,8.864959E0,4.493939E0,5.0139327E0,3.8510263E0,1.5010093E0,2.9929297E0,1.0143628E0,3.9995697E0,1.904125E0,1.9469012E0,1.9716702E0,1.0212595E0,2.738101E0,1.2614686E0,1.6873815E0,1.0507196E0],"tree_param":{"num_deleted":"0","num_feature":"18","num_nodes":"17","size_leaf_vector":"1"}},{"base_weights":[7.930386E-2,-4.5082267E-2,1.876228E-1,4.0856215E-1,-1.0273152E-1,7.645026E-2,5.0087715E-3,-7.200914E-2,2.2169392E-1,-1.8377279E-1,2.988405E-2,5.009083E-2,-1.2522981E-2,3.8779674E-3,-3.308326E-2],"categories":[],"categories_nodes":[],"categories_segments":[],"categories_sizes":[],"default_left":[0,0,0,0,0,0,0,0,0,0,0,0,0,0,0],"id":48,"left_children":[1,-1,3,5,7,-1,9,-1,11,13,-1,-1,-1,-1,-1],"loss_changes":[8.4286135E-1,0E0,7.9066825E-1,9.770396E-1,1.3297747E0,0E0,2.882732E-1,0E0,5.077644E-1,1.1692244E-1,0E0,0E0,0E0,0E0,0E0],"parents":[2147483647,0,0,2,2,3,3,4,4,6,6,8,8,9,9],"right_children":[2,-1,4,6,8,-1,10,-1,12,14,-1,-1,-1,-1,-1],"split_conditions":[-3.5582954E-1,-4.5082267E-2,-1.0509951E-1,-2.3484093E-1,-2.3484093E-1,7.645026E-2,-1.564074E-1,-7.200914E-2,1.4581212E-1,-5.496592E-1,2.988405E-2,5.009083E-2,-1.2522981E-2,3.8779674E-3,-3.308326E-2],"split_indices":[11,0,13,4,4,0,5,0,1,10,0,0,0,0,0],"split_type":[0,0,0,0,0,0,0,0,0,0,0,0,0,0,0],"sum_hessian":[1.2205164E1,1.5342683E0,1.0670897E1,5.828613E0,4.8422832E0,2.6217556E0,3.2068572E0,1.2479426E0,3.5943406E0,2.180494E0,1.0263633E0,1.7455852E0,1.8487554E0,1.160522E0,1.019972E0],"tree_param":{"num_deleted":"0","num_feature":"18","num_nodes":"15","size_leaf_vector":"1"}},{"base_weights":[-1.5882531E-1,-1.6479637E-2,-4.92181E-1,-2.306054E-1,3.5003793E-1,7.2304676E-3,-7.190957E-2,-3.8549507E-1,3.4137297E-2,4.7482932E-1,2.4825882E-3,-7.5921603E-3,-4.839592E-1,2.5888879E-2,-2.016797E-2,6.3316874E-2,6.4590275E-3,-6.413754E-2,-1.5433744E-2],"categories":[],"categories_nodes":[],"categories_segments":[],"categories_sizes":[],"default_left":[0,0,0,0,0,0,0,0,0,0,0,0,0,0,0,0,0,0,0],"id":49,"left_children":[1,3,5,7,9,-1,-1,11,13,15,-1,-1,17,-1,-1,-1,-1,-1,-1],"loss_changes":[6.726148E-1,9.508844E-1,5.974083E-1,3.2487157E-1,1.7026883E-1,0E0,0E0,1.11921966E-1,2.4961047E-1,1.661073E-1,0E0,0E0,8.335477E-2,0E0,0E0,0E0,0E0,0E0,0E0],"parents":[2147483647,0,0,1,1,2,2,3,3,4,4,7,7,8,8,9,9,12,12],"right_children":[2,4,6,8,10,-1,-1,12,14,16,-1,-1,18,-1,-1,-1,-1,-1,-1],"split_conditions":[1.9011432E-1,-1.564074E-1,-1.4863066E-1,-2.1769695E-1,-1.0053578E-1,7.2304676E-3,-7.190957E-2,-2.7912056E-1,-5.496592E-1,-1.812732E-1,2.4825882E-3,-7.5921603E-3,-3.2162648E-1,2.5888879E-2,-2.016797E-2,6.3316874E-2,6.4590275E-3,-6.413754E-2,-1.5433744E-2],"split_indices":[7,5,11,11,13,0,0,6,10,4,0,0,5,0,0,0,0,0,0],"split_type":[0,0,0,0,0,0,0,0,0,0,0,0,0,0,0,0,0,0,0],"sum_hessian":[1.3345646E1,1.0087594E1,3.2580514E0,6.6016307E0,3.4859636E0,1.1295291E0,2.1285222E0,3.8771582E0,2.7244725E0,2.1867836E0,1.29918E0,1.362979E0,2.5141792E0,1.3448708E0,1.3796016E0,1.1857194E0,1.0010643E0,1.0614668E0,1.4527124E0],"tree_param":{"num_deleted":"0","num_feature":"18","num_nodes":"19","size_leaf_vector":"1"}},{"base_weights":[6.1093986E-2,1.282994E-1,-3.785116E-2,2.1123424E-2,5.7679754E-2,1.5410554E-1,-4.7190193E-2,2.6476458E-1,-3.1743724E-2,7.1233315E-3,6.341576E-2,2.4441567E-1,-2.5824487E-1,-6.684478E-3,4.7503978E-2,-3.5891987E-2,-3.0169135E-3],"categories":[],"categories_nodes":[],"categories_segments":[],"categories_sizes":[],"default_left":[0,0,0,0,0,0,0,0,0,0,0,0,0,0,0,0,0],"id":50,"left_children":[1,3,-1,5,-1,7,-1,9,-1,11,-1,13,15,-1,-1,-1,-1],"loss_changes":[4.6899366E-1,6.1705416E-1,0E0,8.335021E-1,0E0,6.002445E-1,0E0,8.09909E-1,0E0,4.442561E-1,0E0,2.9801118E-1,6.594479E-2,0E0,0E0,0E0,0E0],"parents":[2147483647,0,0,1,1,3,3,5,5,7,7,9,9,11,11,12,12],"right_children":[2,4,-1,6,-1,8,-1,10,-1,12,-1,14,16,-1,-1,-1,-1],"split_conditions":[8.480487E-1,1.4278413E-1,-3.785116E-2,1.9011432E-1,5.7679754E-2,-1.0053578E-1,-4.7190193E-2,-1.4863066E-1,-3.1743724E-2,-2.1095715E-1,6.341576E-2,-3.9554414E-1,-1.865641E-1,-6.684478E-3,4.7503978E-2,-3.5891987E-2,-3.0169135E-3],"split_indices":[3,16,0,7,0,13,0,11,0,15,0,4,17,0,0,0,0],"split_type":[0,0,0,0,0,0,0,0,0,0,0,0,0,0,0,0,0],"sum_hessian":[1.3230729E1,1.2090521E1,1.1402092E0,1.0603692E1,1.486828E0,8.89256E0,1.7111325E0,7.557518E0,1.335042E0,5.052691E0,2.5048268E0,2.7091367E0,2.3435545E0,1.455239E0,1.2538977E0,1.227872E0,1.1156824E0],"tree_param":{"num_deleted":"0","num_feature":"18","num_nodes":"17","size_leaf_vector":"1"}},{"base_weights":[-3.2709237E-2,-1.5167016E-1,2.935783E-1,-1.5313409E-2,-5.3722184E-2,5.7141908E-2,-1.6073057E-2,1.4223318E-1,-3.1334987E-1,-5.898056E-2,4.7930557E-2,-5.9410106E-2,1.4307754E-2,3.0450964E-2,-3.7183598E-1,-4.8855703E-2,-7.6193996E-3],"categories":[],"categories_nodes":[],"categories_segments":[],"categories_sizes":[],"default_left":[0,0,0,0,0,0,0,0,0,0,0,0,0,0,0,0,0],"id":51,"left_children":[1,3,5,7,-1,-1,-1,9,11,13,-1,-1,-1,-1,15,-1,-1],"loss_changes":[6.212129E-1,5.988271E-1,6.35895E-1,4.934307E-1,0E0,0E0,0E0,4.9906638E-1,5.4862154E-1,7.087966E-1,0E0,0E0,0E0,0E0,7.543707E-2,0E0,0E0],"parents":[2147483647,0,0,1,1,2,2,3,3,7,7,8,8,9,9,14,14],"right_children":[2,4,6,8,-1,-1,-1,10,12,14,-1,-1,-1,-1,16,-1,-1],"split_conditions":[4.8226368E-1,-3.763043E-2,1.7696205E0,-1.06620744E-1,-5.3722184E-2,5.7141908E-2,-1.6073057E-2,-5.602344E-1,1.6215384E-1,-8.3519095E-1,4.7930557E-2,-5.9410106E-2,1.4307754E-2,3.0450964E-2,-3.381842E-1,-4.8855703E-2,-7.6193996E-3],"split_indices":[0,0,0,13,0,0,0,10,17,10,0,0,0,0,3,0,0],"split_type":[0,0,0,0,0,0,0,0,0,0,0,0,0,0,0,0,0],"sum_hessian":[1.3857115E1,1.05469675E1,3.3101468E0,8.559483E0,1.9874852E0,1.8940376E0,1.4161092E0,5.9414883E0,2.6179945E0,4.2371583E0,1.70433E0,1.4341854E0,1.1838092E0,1.9723105E0,2.2648475E0,1.1559448E0,1.1089027E0],"tree_param":{"num_deleted":"0","num_feature":"18","num_nodes":"17","size_leaf_vector":"1"}},{"base_weights":[3.8127147E-2,-3.5708636E-2,1.1822092E-1,2.1996373E-1,-3.463616E-2,4.3395307E-2,5.3757936E-2,3.4451884E-1,-2.2624323E-1,6.621275E-2,-2.4775378E-3,-5.095942E-2,1.4442424E-2],"categories":[],"categories_nodes":[],"categories_segments":[],"categories_sizes":[],"default_left":[0,0,0,0,0,0,0,0,0,0,0,0,0],"id":52,"left_children":[1,-1,3,5,-1,7,-1,9,11,-1,-1,-1,-1],"loss_changes":[4.7662425E-1,0E0,6.5107507E-1,5.70507E-1,0E0,7.18844E-1,0E0,5.0027287E-1,5.743773E-1,0E0,0E0,0E0,0E0],"parents":[2147483647,0,0,2,2,3,3,5,5,7,7,8,8],"right_children":[2,-1,4,6,-1,8,-1,10,12,-1,-1,-1,-1],"split_conditions":[-3.5582954E-1,-3.5708636E-2,5.1087177E-1,-1.4297436E-1,-3.463616E-2,-1.3348174E-1,5.3757936E-2,-2.7912056E-1,-1.4863066E-1,6.621275E-2,-2.4775378E-3,-5.095942E-2,1.4442424E-2],"split_indices":[11,0,17,17,0,14,0,6,11,0,0,0,0],"split_type":[0,0,0,0,0,0,0,0,0,0,0,0,0],"sum_hessian":[1.2723612E1,1.5612837E0,1.1162328E1,9.588907E0,1.5734205E0,6.8933787E0,2.6955287E0,3.1253657E0,3.768013E0,1.2539562E0,1.8714095E0,1.9231156E0,1.8448973E0],"tree_param":{"num_deleted":"0","num_feature":"18","num_nodes":"13","size_leaf_vector":"1"}},{"base_weights":[-1.7817995E-1,-6.392707E-2,-7.182674E-2,-3.117056E-1,2.8626317E-1,-5.145087E-1,-3.7787173E-2,-1.0109076E-2,4.9232468E-1,-2.3953628E-2,-6.541761E-2,2.8049469E-2,-3.4751408E-2,6.3530974E-2,1.0727082E-2],"categories":[],"categories_nodes":[],"categories_segments":[],"categories_sizes":[],"default_left":[0,0,0,0,0,0,0,0,0,0,0,0,0,0,0],"id":53,"left_children":[1,3,-1,5,7,9,11,-1,13,-1,-1,-1,-1,-1,-1],"loss_changes":[7.537055E-1,1.1125486E0,0E0,3.9082837E-1,4.8143855E-1,3.2293797E-3,5.135941E-1,0E0,1.355893E-1,0E0,0E0,0E0,0E0,0E0,0E0],"parents":[2147483647,0,0,1,1,3,3,4,4,5,5,6,6,8,8],"right_children":[2,4,-1,6,8,10,12,-1,14,-1,-1,-1,-1,-1,-1],"split_conditions":[4.5863736E-1,-1.564074E-1,-7.182674E-2,-5.602344E-1,-1.17581055E-1,-8.422285E-1,1.1658156E-1,-1.0109076E-2,7.4857794E-2,-2.3953628E-2,-6.541761E-2,2.8049469E-2,-3.4751408E-2,6.3530974E-2,1.0727082E-2],"split_indices":[7,5,0,10,2,0,10,0,8,0,0,0,0,0,0],"split_type":[0,0,0,0,0,0,0,0,0,0,0,0,0,0,0],"sum_hessian":[1.1958467E1,1.0793515E1,1.1649514E0,6.385398E0,4.4081173E0,3.1642952E0,3.2211027E0,1.7075963E0,2.700521E0,1.9803993E0,1.1838961E0,1.6351593E0,1.5859433E0,1.4953256E0,1.2051954E0],"tree_param":{"num_deleted":"0","num_feature":"18","num_nodes":"15","size_leaf_vector":"1"}},{"base_weights":[-1.6360905E-2,-1.9233117E-1,1.9298144E-1,-4.117772E-3,-6.275723E-2,3.9530352E-1,-2.0723706E-2,-2.7883828E-1,2.7971548E-1,1.053216E-1,5.8298927E-2,-4.8690286E-2,2.3619782E-3,-2.0077731E-2,5.450443E-2,-1.1439229E-2,2.6959676E-2],"categories":[],"categories_nodes":[],"categories_segments":[],"categories_sizes":[],"default_left":[0,0,0,0,0,0,0,0,0,0,0,0,0,0,0,0,0],"id":54,"left_children":[1,3,5,7,-1,9,-1,11,13,15,-1,-1,-1,-1,-1,-1,-1],"loss_changes":[5.5886304E-1,6.688026E-1,6.460968E-1,6.0262597E-1,0E0,2.0919365E-1,0E0,2.58175E-1,5.9496415E-1,1.454019E-1,0E0,0E0,0E0,0E0,0E0,0E0,0E0],"parents":[2147483647,0,0,1,1,2,2,3,3,5,5,7,7,8,8,9,9],"right_children":[2,4,6,8,-1,10,-1,12,14,16,-1,-1,-1,-1,-1,-1,-1],"split_conditions":[-1.564074E-1,-1.2250551E-1,5.1087177E-1,-4.4602358E-1,-6.275723E-2,-9.938461E-2,-2.0723706E-2,-3.2162648E-1,-4.2920864E-1,-7.0326515E-2,5.8298927E-2,-4.8690286E-2,2.3619782E-3,-2.0077731E-2,5.450443E-2,-1.1439229E-2,2.6959676E-2],"split_indices":[5,3,17,3,0,17,0,5,9,16,0,0,0,0,0,0,0],"split_type":[0,0,0,0,0,0,0,0,0,0,0,0,0,0,0,0,0],"sum_hessian":[1.3163265E1,7.1958194E0,5.9674454E0,5.728205E0,1.467614E0,3.9718437E0,1.9956018E0,2.9197729E0,2.8084326E0,2.1740339E0,1.7978097E0,1.3685272E0,1.5512456E0,1.0856612E0,1.7227714E0,1.059985E0,1.1140488E0],"tree_param":{"num_deleted":"0","num_feature":"18","num_nodes":"17","size_leaf_vector":"1"}},{"base_weights":[-6.258324E-2,1.1228208E-1,-3.4437057E-1,-1.6210459E-1,2.7511254E-1,-5.066771E-1,1.6054938E-2,2.4965944E-2,-5.4154962E-2,5.5770338E-2,-7.739306E-3,-2.0093753E-3,-6.944149E-2,-3.529292E-2,4.6979036E-2],"categories":[],"categories_nodes":[],"categories_segments":[],"categories_sizes":[],"default_left":[0,0,0,0,0,0,0,0,0,0,0,0,0,0,0],"id":55,"left_children":[1,3,5,7,9,11,-1,-1,-1,-1,13,-1,-1,-1,-1],"loss_changes":[6.979412E-1,4.4716167E-1,5.213695E-1,7.5780725E-1,4.8593265E-1,3.7919927E-1,0E0,0E0,0E0,0E0,8.247625E-1,0E0,0E0,0E0,0E0],"parents":[2147483647,0,0,1,1,2,2,3,3,4,4,5,5,10,10],"right_children":[2,4,6,8,10,12,-1,-1,-1,-1,14,-1,-1,-1,-1],"split_conditions":[-1.0357826E-1,-6.871374E-1,1.2657793E-1,-1.282937E-1,-1.1422695E-1,-4.3333146E-1,1.6054938E-2,2.4965944E-2,-5.4154962E-2,5.5770338E-2,-1.564074E-1,-2.0093753E-3,-6.944149E-2,-3.529292E-2,4.6979036E-2],"split_indices":[13,10,6,15,13,10,0,0,0,0,5,0,0,0,0],"split_type":[0,0,0,0,0,0,0,0,0,0,0,0,0,0,0],"sum_hessian":[1.237954E1,8.010252E0,4.3692884E0,2.9848762E0,5.0253763E0,3.3038013E0,1.065487E0,1.59551E0,1.3893661E0,2.027766E0,2.9976103E0,1.2280203E0,2.075781E0,1.8913472E0,1.1062632E0],"tree_param":{"num_deleted":"0","num_feature":"18","num_nodes":"15","size_leaf_vector":"1"}},{"base_weights":[8.363861E-3,3.6432928E-1,-1.19560696E-1,8.791733E-3,4.5930512E-2,-3.19645E-1,4.2401407E-2,8.6178534E-2,-5.661643E-1,-2.7487773E-2,4.4298187E-2,-6.850479E-2,-1.6887633E-2],"categories":[],"categories_nodes":[],"categories_segments":[],"categories_sizes":[],"default_left":[0,0,0,0,0,0,0,0,0,0,0,0,0],"id":56,"left_children":[1,3,5,-1,-1,7,-1,9,11,-1,-1,-1,-1],"loss_changes":[5.5666906E-1,4.430902E-2,1.1189554E0,0E0,0E0,7.670457E-1,0E0,5.830907E-1,1.0150063E-1,0E0,0E0,0E0,0E0],"parents":[2147483647,0,0,1,1,2,2,5,5,7,7,8,8],"right_children":[2,4,6,-1,-1,8,-1,10,12,-1,-1,-1,-1],"split_conditions":[-8.034652E-1,-9.412559E-1,1.4278413E-1,8.791733E-3,4.5930512E-2,-1.1118447E-1,4.2401407E-2,-3.037582E-1,2.099382E-1,-2.7487773E-2,4.4298187E-2,-6.850479E-2,-1.6887633E-2],"split_indices":[10,0,16,0,0,13,0,8,0,0,0,0,0],"split_type":[0,0,0,0,0,0,0,0,0,0,0,0,0],"sum_hessian":[1.0268042E1,2.2259812E0,8.042061E0,1.0617139E0,1.1642673E0,6.1794324E0,1.862628E0,2.5809898E0,3.5984428E0,1.3969743E0,1.1840155E0,2.212168E0,1.3862747E0],"tree_param":{"num_deleted":"0","num_feature":"18","num_nodes":"13","size_leaf_vector":"1"}},{"base_weights":[-7.7508776E-3,-1.4487277E-1,1.5601408E-1,2.3187883E-2,-5.36766E-2,4.5513496E-1,-1.21782616E-1,1.8479466E-1,-3.711679E-2,5.938329E-2,1.6180571E-2,2.5304148E-2,-4.8764654E-2,-1.3636249E-2,4.008554E-1,5.5589616E-2,1.6505122E-3],"categories":[],"categories_nodes":[],"categories_segments":[],"categories_sizes":[],"default_left":[0,0,0,0,0,0,0,0,0,0,0,0,0,0,0,0,0],"id":57,"left_children":[1,3,5,7,-1,9,11,13,-1,-1,-1,-1,-1,-1,15,-1,-1],"loss_changes":[3.3794332E-1,5.499865E-1,6.272143E-1,4.9371392E-1,0E0,4.7305346E-2,7.208421E-1,4.2931205E-1,0E0,0E0,0E0,0E0,0E0,0E0,1.9829202E-1,0E0,0E0],"parents":[2147483647,0,0,1,1,2,2,3,3,5,5,6,6,7,7,14,14],"right_children":[2,4,6,8,-1,10,12,14,-1,-1,-1,-1,-1,-1,16,-1,-1],"split_conditions":[-1.564074E-1,-1.2250551E-1,3.703323E-2,-1.4297436E-1,-5.36766E-2,-3.842265E-1,1.9011432E-1,-3.2162648E-1,-3.711679E-2,5.938329E-2,1.6180571E-2,2.5304148E-2,-4.8764654E-2,-1.3636249E-2,-1.706411E-1,5.5589616E-2,1.6505122E-3],"split_indices":[5,3,15,17,0,0,7,5,0,0,0,0,0,0,2,0,0],"split_type":[0,0,0,0,0,0,0,0,0,0,0,0,0,0,0,0,0],"sum_hessian":[1.3042771E1,7.1616325E0,5.881139E0,5.6706467E0,1.4909861E0,2.52449E0,3.3566487E0,4.399241E0,1.2714056E0,1.0184615E0,1.5060287E0,1.8103426E0,1.5463061E0,1.9176605E0,2.4815805E0,1.4502472E0,1.0313333E0],"tree_param":{"num_deleted":"0","num_feature":"18","num_nodes":"17","size_leaf_vector":"1"}},{"base_weights":[-1.0852894E-1,-2.4602565E-1,9.87391E-2,-7.909979E-2,-6.0207542E-2,-3.3463694E-2,2.7454457E-1,-3.7134524E-2,7.346549E-2,-1.60624E-2,5.527828E-2,2.5721687E-1,-2.3792408E-2,2.163758E-3,4.028156E-2],"categories":[],"categories_nodes":[],"categories_segments":[],"categories_sizes":[],"default_left":[0,0,0,0,0,0,0,0,0,0,0,0,0,0,0],"id":58,"left_children":[1,3,5,7,-1,-1,9,-1,11,-1,-1,13,-1,-1,-1],"loss_changes":[3.875303E-1,4.2481565E-1,5.335295E-1,3.1990427E-1,0E0,0E0,6.546236E-1,0E0,3.5569075E-1,0E0,0E0,1.1878803E-1,0E0,0E0,0E0],"parents":[2147483647,0,0,1,1,2,2,3,3,6,6,8,8,11,11],"right_children":[2,4,6,8,-1,-1,10,-1,12,-1,-1,14,-1,-1,-1],"split_conditions":[-1.564074E-1,-1.2511823E-1,-6.6598696E-1,-3.419764E-1,-6.0207542E-2,-3.3463694E-2,-7.627132E-2,-3.7134524E-2,-1.865641E-1,-1.60624E-2,5.527828E-2,-3.381842E-1,-2.3792408E-2,2.163758E-3,4.028156E-2],"split_indices":[5,14,10,4,0,0,6,0,17,0,0,3,0,0,0],"split_type":[0,0,0,0,0,0,0,0,0,0,0,0,0,0,0],"sum_hessian":[1.1745784E1,6.948993E0,4.7967906E0,5.563045E0,1.3859485E0,1.1235905E0,3.6732E0,1.4162148E0,4.14683E0,1.5974599E0,2.07574E0,2.7173119E0,1.4295181E0,1.4766682E0,1.2406436E0],"tree_param":{"num_deleted":"0","num_feature":"18","num_nodes":"15","size_leaf_vector":"1"}},{"base_weights":[-1.8665072E-2,-3.7216913E-2,7.4691E-2,4.635261E-2,-4.3068245E-2,-4.9006496E-2,1.0678994E-1,4.502767E-1,-1.6873142E-1,4.013412E-3,5.9942164E-2,-4.42659E-2,1.2894037E-1,3.740373E-2,-1.6391259E-2],"categories":[],"categories_nodes":[],"categories_segments":[],"categories_sizes":[],"default_left":[0,0,0,0,0,0,0,0,0,0,0,0,0,0,0],"id":59,"left_children":[1,-1,3,-1,5,-1,7,9,11,-1,-1,-1,13,-1,-1],"loss_changes":[4.593029E-1,0E0,5.3172135E-1,0E0,6.8826306E-1,0E0,8.2654095E-1,2.0855308E-1,4.7523826E-1,0E0,0E0,0E0,2.9329687E-1,0E0,0E0],"parents":[2147483647,0,0,2,2,4,4,6,6,7,7,8,8,12,12],"right_children":[2,-1,4,-1,6,-1,8,10,12,-1,-1,-1,14,-1,-1],"split_conditions":[-3.419764E-1,-3.7216913E-2,-8.3519095E-1,4.635261E-2,-6.448364E-1,-4.9006496E-2,7.428056E-2,-1.4863066E-1,8.164813E-1,4.013412E-3,5.9942164E-2,-4.42659E-2,6.388471E-2,3.740373E-2,-1.6391259E-2],"split_indices":[4,0,10,0,10,0,10,11,0,0,0,0,5,0,0],"split_type":[0,0,0,0,0,0,0,0,0,0,0,0,0,0,0],"sum_hessian":[1.2075224E1,1.8987652E0,1.0176459E1,1.6830137E0,8.493445E0,1.562533E0,6.930912E0,2.8026433E0,4.1282687E0,1.0858084E0,1.7168349E0,1.8962268E0,2.232042E0,1.0641805E0,1.1678616E0],"tree_param":{"num_deleted":"0","num_feature":"18","num_nodes":"15","size_leaf_vector":"1"}},{"base_weights":[-8.1038125E-2,-2.3761322E-1,5.1419117E-2,-3.1429344E-1,1.7325697E-2,-4.1429853E-1,-1.740218E-2,-1.4810656E-1,-7.059977E-2,-3.3556767E-2,2.620156E-2,-4.1814634E-1,2.9313147E-2,-1.258108E-3,-5.8787324E-2],"categories":[],"categories_nodes":[],"categories_segments":[],"categories_sizes":[],"default_left":[0,0,0,0,0,0,0,0,0,0,0,0,0,0,0],"id":60,"left_children":[1,3,-1,5,-1,7,9,11,-1,-1,-1,13,-1,-1,-1],"loss_changes":[1.3067361E0,3.930434E-1,0E0,2.7224106E-1,0E0,4.3871653E-1,3.9155564E-1,7.092482E-1,0E0,0E0,0E0,2.3122567E-1,0E0,0E0,0E0],"parents":[2147483647,0,0,1,1,3,3,5,5,6,6,7,7,11,11],"right_children":[2,4,-1,6,-1,8,10,12,-1,-1,-1,14,-1,-1,-1],"split_conditions":[8.164813E-1,5.8568217E-2,5.1419117E-2,-1.564074E-1,1.7325697E-2,-1.706411E-1,-1.17581055E-1,-5.602344E-1,-7.059977E-2,-3.3556767E-2,2.620156E-2,-9.412559E-1,2.9313147E-2,-1.258108E-3,-5.8787324E-2],"split_indices":[0,11,0,5,0,2,2,10,0,0,0,0,0,0,0],"split_type":[0,0,0,0,0,0,0,0,0,0,0,0,0,0,0],"sum_hessian":[1.1710105E1,9.746968E0,1.9631367E0,8.412085E0,1.3348835E0,5.996697E0,2.4153876E0,3.9237714E0,2.0729258E0,1.0354244E0,1.3799633E0,2.4665592E0,1.4572122E0,1.0445986E0,1.4219606E0],"tree_param":{"num_deleted":"0","num_feature":"18","num_nodes":"15","size_leaf_vector":"1"}},{"base_weights":[-5.5181667E-2,-1.2194587E-1,2.320872E-2,3.9701518E-2,-3.9010245E-1,-2.0778304E-1,2.8971505E-1,-6.477412E-2,-9.8680645E-2,1.1781014E-2,-4.0605423E-1,4.584928E-2,-3.9344276E-3,-3.776061E-2,2.0324968E-2,-1.323853E-2,-4.8607018E-2],"categories":[],"categories_nodes":[],"categories_segments":[],"categories_sizes":[],"default_left":[0,0,0,0,0,0,0,0,0,0,0,0,0,0,0,0,0],"id":61,"left_children":[1,3,-1,5,7,9,11,-1,13,-1,15,-1,-1,-1,-1,-1,-1],"loss_changes":[2.8123093E-1,5.077436E-1,0E0,5.547497E-1,2.636909E-1,3.4473377E-1,2.6205888E-1,0E0,3.4852922E-1,0E0,3.1693578E-3,0E0,0E0,0E0,0E0,0E0,0E0],"parents":[2147483647,0,0,1,1,3,3,4,4,5,5,6,6,8,8,10,10],"right_children":[2,4,-1,6,8,10,12,-1,14,-1,16,-1,-1,-1,-1,-1,-1],"split_conditions":[1.2657793E-1,-1.0357826E-1,2.320872E-2,-5.6990296E-1,-2.3484093E-1,-3.469318E-1,-1.706411E-1,-6.477412E-2,-1.4297436E-1,1.1781014E-2,-7.627132E-2,4.584928E-2,-3.9344276E-3,-3.776061E-2,2.0324968E-2,-1.323853E-2,-4.8607018E-2],"split_indices":[6,13,0,0,4,7,2,0,17,0,6,0,0,0,0,0,0],"split_type":[0,0,0,0,0,0,0,0,0,0,0,0,0,0,0,0,0],"sum_hessian":[1.218761E1,1.0356218E1,1.8313912E0,6.9928236E0,3.3633955E0,3.5990708E0,3.3937526E0,1.1362089E0,2.2271864E0,1.5157609E0,2.08331E0,1.9832039E0,1.4105487E0,1.0274138E0,1.1997726E0,1.0718558E0,1.0114542E0],"tree_param":{"num_deleted":"0","num_feature":"18","num_nodes":"17","size_leaf_vector":"1"}},{"base_weights":[-2.891489E-2,3.7749972E-2,-9.7752415E-2,-1.6043153E-2,-4.7024507E-2,-1.590325E-1,4.5499824E-2,1.5439893E-1,-2.759298E-1,-9.100331E-3,3.3039298E-2,-5.2889016E-2,-7.9310864E-2,3.0630875E-2,-3.744773E-1,-5.80476E-2,4.4227554E-3],"categories":[],"categories_nodes":[],"categories_segments":[],"categories_sizes":[],"default_left":[0,0,0,0,0,0,0,0,0,0,0,0,0,0,0,0,0],"id":62,"left_children":[1,-1,3,5,-1,7,-1,9,11,-1,-1,-1,13,-1,15,-1,-1],"loss_changes":[3.9973047E-1,0E0,3.5418442E-1,7.9857826E-1,0E0,3.7280756E-1,0E0,1.6349456E-1,3.0237776E-1,0E0,0E0,0E0,6.9197303E-1,0E0,3.1226423E-1,0E0,0E0],"parents":[2147483647,0,0,2,2,3,3,5,5,7,7,8,8,12,12,14,14],"right_children":[2,-1,4,6,-1,8,-1,10,12,-1,-1,-1,14,-1,16,-1,-1],"split_conditions":[-1.0774187E0,3.7749972E-2,2.657671E-1,8.164813E-1,-4.7024507E-2,-2.8676325E-1,4.5499824E-2,-1.706411E-1,-6.448364E-1,-9.100331E-3,3.3039298E-2,-5.2889016E-2,-1.706411E-1,3.0630875E-2,3.703323E-2,-5.80476E-2,4.4227554E-3],"split_indices":[0,0,11,0,0,11,0,2,10,0,0,0,2,0,15,0,0],"split_type":[0,0,0,0,0,0,0,0,0,0,0,0,0,0,0,0,0],"sum_hessian":[1.1969028E1,1.0841743E0,1.0884854E1,9.782134E0,1.1027201E0,8.0123005E0,1.7698334E0,2.0893674E0,5.922933E0,1.0743021E0,1.0150653E0,1.8512634E0,4.0716696E0,1.7489752E0,2.3226945E0,1.2978195E0,1.0248752E0],"tree_param":{"num_deleted":"0","num_feature":"18","num_nodes":"17","size_leaf_vector":"1"}},{"base_weights":[5.2805215E-2,1.3389106E-1,-3.9388627E-2,-1.7253041E-1,2.4224672E-1,-3.45468E-2,7.878333E-3,3.6800596E-1,-1.6979914E-2,5.0840637E-5,5.3578913E-1,-1.4943875E-2,1.5398989E-2,7.882776E-2,-5.574825E-3],"categories":[],"categories_nodes":[],"categories_segments":[],"categories_sizes":[],"default_left":[0,0,0,0,0,0,0,0,0,0,0,0,0,0,0],"id":63,"left_children":[1,3,-1,5,7,-1,-1,9,-1,11,13,-1,-1,-1,-1],"loss_changes":[4.734948E-1,3.9301655E-1,0E0,1.7270319E-1,4.8899052E-1,0E0,0E0,4.0877944E-1,0E0,9.3749814E-2,7.231983E-1,0E0,0E0,0E0,0E0],"parents":[2147483647,0,0,1,1,3,3,4,4,7,7,9,9,10,10],"right_children":[2,4,-1,6,8,-1,-1,10,-1,12,14,-1,-1,-1,-1],"split_conditions":[9.9568343E-1,-4.2920864E-1,-3.9388627E-2,-3.037582E-1,7.4857794E-2,-3.45468E-2,7.878333E-3,-1.1118447E-1,-1.6979914E-2,-5.496592E-1,-4.3333146E-1,-1.4943875E-2,1.5398989E-2,7.882776E-2,-5.574825E-3],"split_indices":[7,9,0,8,8,0,0,13,0,10,10,0,0,0,0],"split_type":[0,0,0,0,0,0,0,0,0,0,0,0,0,0,0],"sum_hessian":[1.0616588E1,9.578168E0,1.0384201E0,2.347463E0,7.2307053E0,1.1686362E0,1.1788267E0,5.62178E0,1.6089251E0,2.0739121E0,3.5478678E0,1.0669936E0,1.0069187E0,2.2534337E0,1.2944341E0],"tree_param":{"num_deleted":"0","num_feature":"18","num_nodes":"15","size_leaf_vector":"1"}},{"base_weights":[-1.4206106E-2,1.1397855E-1,-3.297318E-1,2.9870108E-1,-9.777983E-2,-4.0983385E-3,-5.4076023E-2,6.3310325E-2,6.080923E-2,-3.1022918E-1,2.7744249E-2,-2.9555753E-2,2.8890425E-1,-5.1773246E-3,-4.062203E-2,4.9238883E-2,-4.562864E-3],"categories":[],"categories_nodes":[],"categories_segments":[],"categories_sizes":[],"default_left":[0,0,0,0,0,0,0,0,0,0,0,0,0,0,0,0,0],"id":64,"left_children":[1,3,5,7,9,-1,-1,-1,11,13,-1,-1,15,-1,-1,-1,-1],"loss_changes":[5.3875333E-1,4.0295118E-1,2.1161875E-1,3.8707837E-1,5.0098586E-1,0E0,0E0,0E0,4.2940307E-1,7.313052E-2,0E0,0E0,2.3255187E-1,0E0,0E0,0E0,0E0],"parents":[2147483647,0,0,1,1,2,2,3,3,4,4,8,8,9,9,12,12],"right_children":[2,4,6,8,10,-1,-1,-1,12,14,-1,-1,16,-1,-1,-1,-1],"split_conditions":[-1.2205128E-2,-2.3159878E-1,1.4581212E-1,-2.7912056E-1,-1.0002767E-1,-4.0983385E-3,-5.4076023E-2,6.3310325E-2,-8.0509317E-1,-6.194167E-1,2.7744249E-2,-2.9555753E-2,-4.2920864E-1,